term;lda_vector
all;0.19253,0.10,0.06,-0.08,0.52,0.39,-0.41,-0.45,-0.34,-0.11,0.01,0.31,-0.50,-0.11,0.74,0.09,0.34,-0.12,-0.16,-0.84,-0.11,0.40,0.76,0.09,0.10,-1.26,-0.57,-0.36,0.34,-0.75,4.04,0.94,-0.22,-0.35,0.34,0.13,0.23,-0.03,-0.25,0.12,-0.39,-0.04,0.45,0.56,-0.46,0.41,-0.54,0.08,-0.30,-0.30
people;0.95281,-0.20,0.55,-0.46,0.73,0.02,-0.19,-0.09,-0.22,-0.19,-0.34,-1.02,0.74,-0.54,0.88,-0.14,4.0139e-03,0.58,0.10,-0.44,-0.43,0.98,0.78,0.51,0.85,-1.77,-0.88,-0.59,0.08,-0.48,3.96,0.88,-0.27,-0.44,-0.26,0.08,0.02,-0.58,0.10,0.77,-0.95,0.40,0.89,0.65,0.39,0.20,-1.32,-0.10,-0.22,-0.46
government;0.38797,-1.08,0.45,-0.23,0.08,-0.25,-0.18,-0.10,-0.50,-0.58,-0.05,-0.14,9.0217e-03,-0.38,0.18,0.42,0.10,-0.14,1.08,0.06,0.64,0.19,-0.14,-0.87,-0.35,-2.43,0.28,-0.33,-0.56,0.91,4.01,0.07,-1.24,-0.36,-0.50,0.01,-0.27,-0.50,-0.25,-0.09,-0.67,0.40,0.27,-0.37,-0.45,-0.30,-1.64,1.19,0.65,-0.76
time;0.02648,0.33,0.06,-0.11,0.41,-0.21,-0.69,0.28,-0.36,-0.13,0.01,0.08,-0.84,0.05,1.15,0.14,-4.9197e-03,-0.24,-0.96,-0.30,0.23,0.21,0.40,0.17,0.55,-1.63,-0.17,-0.45,0.45,0.14,3.70,0.40,-0.40,-0.29,0.03,-0.15,0.10,0.63,0.12,-0.25,-0.10,6.9768e-03,-0.17,0.35,-0.46,0.15,0.41,-0.33,-0.23,0.19
you;-0.0010919,0.33,0.35,-0.54,0.82,-0.49,-0.32,1.9972e-03,-0.23,0.35,-0.60,0.98,-0.21,0.11,1.14,0.73,0.51,0.29,0.28,-1.35,-0.37,0.50,0.70,0.62,1.05,-2.17,-1.32,0.40,1.57,-1.66,3.77,0.86,-0.80,0.18,-0.34,0.01,0.23,0.06,0.70,-0.73,0.20,0.11,-0.15,0.85,0.22,0.16,0.36,-0.45,-0.04,1.13
no;0.34957,0.40,-0.01,0.13,0.40,0.46,-0.09,-2.4548e-03,-0.33,-4.639e-03,-0.05,0.27,-0.39,-0.29,0.97,0.41,0.18,-0.20,-0.06,-0.61,-0.53,0.41,0.34,-0.31,0.27,-1.83,-0.82,0.48,1.13,-0.38,3.81,0.25,-0.70,-0.25,0.04,-0.09,0.79,-0.49,0.10,0.14,-0.18,0.13,0.21,0.53,-0.19,-0.42,-0.61,0.70,0.57,0.43
world;-0.41486,0.71,-0.30,0.87,0.22,-0.56,-0.37,-0.44,0.61,-0.11,0.74,-0.10,-1.18,0.50,1.35,0.06,0.73,0.26,-1.17,-0.14,0.03,0.03,-0.27,0.25,0.41,-1.61,-0.81,-0.73,-0.28,0.57,3.47,0.73,-0.04,-0.15,-0.93,-0.13,-0.28,0.76,-0.83,-0.67,-0.39,-0.64,1.00,-0.20,0.46,0.99,-0.16,-0.46,-0.37,-0.67
do;0.29605,-0.13,0.04,-0.38,0.12,-0.65,-0.28,0.09,-0.55,0.32,3.7422e-03,0.93,-0.22,-0.21,0.92,0.75,0.84,-4.2197e-03,0.53,-1.26,-0.61,0.16,0.82,0.65,0.48,-1.97,-1.14,-0.21,0.80,-1.47,3.74,1.01,-1.12,-0.52,-0.12,-0.27,0.06,-0.04,0.60,-0.20,-0.45,0.01,0.41,0.68,0.14,-0.03,-0.04,-1.1279e-04,0.13,0.96
state;-0.94222,-0.05,0.08,0.71,-0.17,-0.13,-0.27,0.32,0.19,-0.92,-0.51,-0.45,0.45,-0.52,-0.11,0.07,0.19,0.32,0.42,0.38,0.09,-0.58,0.02,-0.15,-0.40,-2.67,0.14,-0.13,-0.42,-0.35,3.44,-0.26,-0.61,-0.99,0.06,-0.11,-0.23,0.15,0.57,0.29,-1.18,0.51,0.19,-0.01,-1.21,0.67,-1.03,0.53,0.20,0.10
us;0.19086,0.24,1.27,-0.03,0.60,-0.70,0.04,-0.44,8.0416e-03,-0.18,-0.68,-0.12,-0.32,-0.07,0.79,0.31,0.08,-0.03,-0.60,0.01,0.42,0.71,0.13,-0.64,0.06,-2.23,0.01,-0.45,0.40,-4.2052e-03,3.45,0.54,-0.37,0.58,-0.22,-0.84,-0.30,-0.69,-0.42,-0.81,0.03,0.25,1.74,-0.61,0.41,0.40,-0.51,0.89,-0.54,0.69
most;0.53248,0.03,-0.12,-0.15,0.25,0.20,-0.71,-0.27,-0.47,0.49,-0.12,-0.24,0.23,0.11,0.44,-0.10,0.44,0.16,-0.34,-0.54,-0.56,-0.12,0.23,0.39,0.13,-1.47,-1.13,-0.23,0.17,0.20,3.95,9.2012e-03,0.61,-0.75,0.42,0.09,-0.26,0.48,-0.78,-0.10,-0.68,0.34,0.42,0.71,0.05,0.33,-0.72,0.06,-0.34,-0.06
united;-0.39874,0.07,-0.06,0.14,0.11,0.14,-0.84,0.14,0.64,-0.55,0.50,-0.07,-0.41,-0.53,1.539e-03,0.13,0.41,-0.46,-0.39,0.31,0.14,-0.02,0.15,0.04,-0.48,-2.19,0.95,-0.52,-0.24,0.07,3.28,0.20,-0.38,-0.66,-0.13,-0.76,-0.09,0.21,-0.99,-0.48,0.05,-0.28,0.92,-0.90,-0.05,1.05,-0.98,0.16,-0.81,-0.12
many;0.6979,0.08,0.04,-0.50,-0.15,0.36,-1.07,-0.23,-0.74,0.16,-0.18,-0.07,0.32,-0.20,0.59,-0.06,0.34,-0.05,0.06,-1.02,-0.01,0.06,0.42,0.45,0.20,-1.24,-1.18,-0.66,-0.04,-0.26,4.01,0.44,0.40,-1.06,0.28,0.36,-0.40,-0.04,-0.50,0.39,-0.68,0.19,0.46,0.91,0.49,0.15,-0.86,0.03,-0.60,-0.64
while;0.1011,-0.16,0.22,-0.10,0.46,0.37,-0.62,-0.14,-0.38,0.05,0.23,-0.20,-0.55,-0.38,0.21,0.02,-0.23,-0.13,-0.61,-0.46,0.25,0.62,0.38,-0.25,0.09,-1.51,0.47,-0.08,0.02,-0.25,3.61,0.62,0.15,-0.06,0.28,-0.16,-0.20,0.44,0.06,-0.10,-0.15,0.27,0.38,-0.09,0.10,-0.08,-0.27,-0.49,0.04,-0.39
states;-0.42093,0.04,0.11,0.34,0.09,0.42,-0.34,0.01,0.61,-0.57,0.29,-0.21,0.14,-0.31,0.16,0.05,0.16,-0.58,-0.06,0.08,0.21,-0.52,0.46,-0.04,-0.20,-2.36,0.37,-0.68,0.02,-0.17,3.36,-0.10,-0.49,-0.84,-0.15,-0.92,-0.34,0.29,-0.96,-0.13,-0.47,-0.05,1.37,-0.68,-0.29,0.79,-0.73,0.13,-0.79,0.19
now;0.40991,0.08,0.29,-0.25,0.30,-0.23,-0.89,-0.23,-0.24,-0.14,0.02,-0.09,-0.51,-0.36,0.60,0.66,0.30,0.44,-0.09,-0.06,-0.10,0.10,0.10,0.34,-0.04,-1.92,-0.33,0.16,0.08,-0.28,3.54,0.26,-0.02,-0.39,0.03,-0.32,-0.15,0.48,0.16,-0.44,-0.44,-0.04,0.23,0.28,-0.43,0.40,-0.47,-0.33,-0.39,0.13
city;0.43945,0.43,-0.36,0.27,0.06,-0.80,-0.93,0.01,-0.55,-0.16,-0.40,-1.39,0.32,-0.88,-0.18,0.11,0.04,0.83,-0.87,0.77,0.55,0.07,-0.84,0.40,-0.59,-2.06,-0.15,0.57,0.28,-1.02,3.24,0.50,0.11,-1.17,0.19,0.36,-0.04,0.02,0.54,0.84,-0.66,0.60,0.23,-0.65,-0.70,0.51,-1.07,-0.71,0.48,-0.32
like;0.36808,0.20,-0.22,0.04,0.20,0.27,-0.77,-0.76,-0.34,0.50,-0.24,0.71,-0.33,0.37,0.44,0.36,0.43,0.47,-0.05,-0.93,-0.27,0.31,0.22,0.36,0.10,-1.76,-1.26,0.30,0.56,-1.02,3.23,0.48,0.02,0.03,-0.07,0.18,-0.52,0.03,0.27,-0.07,-0.27,0.79,1.6028e-03,0.45,0.88,0.43,-0.19,-0.67,-0.39,0.25
as;0.20782,0.12,-0.30,-0.23,0.30,0.33,-0.52,-0.44,-0.48,0.03,0.34,0.54,-0.20,-0.08,0.24,0.15,-3.1349e-03,0.32,-0.45,-0.22,0.02,-0.04,0.31,0.08,-0.03,-1.82,-0.50,-0.09,-0.08,0.05,3.71,-0.16,-0.07,-0.57,0.20,0.13,0.07,0.08,-0.25,-0.15,-0.15,0.39,-0.23,-0.09,0.07,-0.01,-0.49,-0.35,0.05,0.01
at;0.27724,0.88,-0.26,0.08,0.40,-1.16,-0.68,0.14,-0.57,-0.58,-0.50,-0.86,-0.52,-0.56,0.32,0.43,-0.21,0.49,-1.81,-0.03,1.32,0.80,0.01,-0.08,-0.16,-1.59,0.47,0.26,-0.41,-0.38,3.44,0.34,-0.03,-0.56,0.18,-0.48,0.42,0.44,1.09,0.06,-0.06,-0.29,0.08,0.35,0.17,0.25,0.37,-0.51,0.02,0.05
from;0.41037,0.11,0.05,-0.53,-0.12,0.22,-0.94,-0.18,-0.36,-0.06,0.19,-0.33,0.11,-0.58,0.36,0.12,-0.35,-0.02,-1.23,0.23,0.71,0.14,0.50,-0.12,-0.20,-1.82,0.22,0.02,-0.08,-0.27,3.73,-0.01,-0.08,-0.30,0.27,0.04,-0.24,0.01,0.49,0.15,-0.01,0.40,0.23,-0.10,-0.36,-0.05,0.04,-0.36,-0.19,-0.81
his;-0.033537,0.47,-0.68,-0.72,0.84,0.64,-0.75,0.63,-0.54,0.11,-0.20,0.63,-1.26,-0.17,0.35,-0.55,-0.65,-0.34,-0.31,-0.07,-0.11,0.97,-0.01,-0.73,0.47,-2.70,-0.42,-0.05,0.01,-0.11,3.30,0.17,-0.50,-0.22,0.24,0.56,0.09,0.95,7.6093e-03,-0.54,0.09,0.41,-1.11,5.0954e-03,-0.14,-0.45,-0.08,-0.62,-0.02,-0.43
i;0.11891,0.15,-0.08,-0.74,0.75,-0.48,-0.31,0.51,-0.98,6.1757e-04,-0.15,0.83,-1.07,-0.51,1.31,0.62,0.13,0.47,-0.07,-0.72,-0.74,0.75,0.88,0.29,1.35,-2.57,-1.35,0.45,1.00,-1.18,3.47,0.77,-0.72,0.25,-0.26,-0.34,0.55,0.75,0.49,-0.26,-2.7443e-03,-0.01,-0.28,0.55,0.03,0.18,-0.15,-0.57,-0.26,0.92
one;0.31474,0.41,0.13,0.15,0.88,0.43,-0.55,0.03,-0.14,-0.14,-0.17,-0.17,-0.49,0.26,0.48,-0.29,0.18,0.14,-0.75,-0.35,-0.23,0.18,0.17,0.23,0.14,-1.90,-0.65,-0.02,0.10,-0.43,3.78,-0.04,-0.04,0.02,0.51,0.13,0.23,0.25,0.06,-0.06,-0.15,0.30,-0.09,0.33,-0.14,0.01,-0.24,-0.20,0.07,-0.11
new;0.19511,0.50,1.4709e-03,0.04,-0.16,0.03,-1.39,-0.92,-0.24,-0.15,-0.47,0.05,-0.24,0.38,0.01,0.34,-0.22,0.08,-0.41,-0.18,0.75,-0.02,-0.69,0.10,-0.47,-1.80,-0.16,-0.05,-0.16,-0.09,3.66,0.04,-0.29,-0.69,0.30,-0.28,0.13,-7.643e-03,-0.09,-0.49,-0.27,0.06,0.09,-0.23,-0.08,1.02,-0.22,0.03,-0.14,0.45
first;-0.14168,0.41,-0.31,0.16,0.26,0.45,-1.20,0.01,-0.22,-0.16,0.34,-0.12,-0.65,0.29,0.62,-0.57,-0.33,-0.22,-1.48,0.28,0.08,-0.21,5.6613e-03,-0.05,0.09,-1.58,-0.22,-0.62,-0.39,-0.08,3.59,-0.16,-0.39,0.02,0.52,-0.02,0.63,0.62,-0.22,-0.45,-0.14,-0.27,-0.46,-0.44,-0.43,0.38,0.13,-0.25,0.01,-0.14
year;-0.098793,0.26,0.35,-0.10,-0.01,0.05,-1.08,-0.53,9.5416e-03,0.07,-0.08,-0.62,-0.52,-0.56,1.80,0.01,-0.44,-0.04,-1.11,0.17,0.49,-0.38,0.30,-0.70,-0.35,-1.51,-0.02,-0.54,-0.36,0.52,3.65,0.71,-0.16,0.36,0.33,-0.48,0.10,0.61,0.15,-0.70,-1.23,-0.01,0.09,-0.30,-0.49,-0.04,-0.16,0.11,-0.37,0.09
national;-1.1105,0.94,-0.17,0.93,-0.24,-0.70,-0.86,-0.56,0.73,-1.02,0.33,-0.41,0.06,0.19,-0.22,-0.26,0.35,0.37,-0.30,0.03,-0.22,-0.14,-0.14,-0.46,-0.58,-1.64,-0.65,-0.44,-1.43,0.32,3.44,0.47,-1.00,-1.13,-0.68,0.02,0.04,-0.30,0.29,-0.16,-0.72,-0.20,-0.16,-0.20,-0.44,0.35,-0.98,0.47,0.45,-0.35
day;0.11626,0.53,-0.39,-0.26,0.57,-0.79,-0.88,0.30,0.08,-0.33,-0.64,-0.75,-0.30,0.07,1.22,-0.03,-0.47,-0.40,-1.11,-0.21,0.49,0.55,0.38,-0.22,0.37,-1.42,-0.13,0.10,0.16,0.35,3.57,0.76,-0.59,0.51,0.12,-0.36,0.43,0.08,0.03,0.08,-0.87,0.26,-0.32,-0.12,0.25,0.32,0.02,-0.39,-0.10,0.08
second;-0.29809,0.28,0.08,0.54,0.70,0.44,-0.72,0.62,6.8863e-04,-0.02,0.25,-0.55,-1.09,0.03,0.52,-0.63,-0.18,-0.79,-1.59,0.25,-0.19,-0.43,-0.17,-0.16,0.15,-1.60,0.15,-0.44,-0.13,-0.04,3.47,0.14,-0.11,0.54,0.45,-0.18,0.56,0.87,5.1749e-04,-0.57,-0.11,-0.13,-0.38,-0.79,-0.57,0.38,0.45,-0.48,0.34,-0.29
company;0.62583,-0.57,0.41,0.86,-0.08,0.26,-1.48,-0.38,0.42,0.11,0.78,0.81,-0.78,-0.65,-0.09,0.20,-0.73,0.86,-0.26,-0.93,1.91,-0.17,-0.61,-0.50,-0.93,-1.67,-0.79,-0.32,-0.06,-0.12,3.29,-0.43,0.38,0.38,-0.01,-0.98,-0.53,0.39,0.89,-0.40,0.58,-0.52,0.27,-0.25,-0.30,-0.06,-1.12,0.21,-0.15,0.64
group;0.74048,-0.12,0.03,0.77,0.80,0.32,-0.77,-0.35,0.05,0.08,0.81,-0.43,-0.83,0.44,-0.76,-0.46,0.51,0.01,-0.66,-0.15,0.34,0.45,0.18,0.54,-1.47,-1.16,-0.74,-0.86,-1.27,-0.06,3.62,0.05,-0.29,-0.08,-0.32,-1.00,-0.47,-0.83,0.02,-0.09,0.21,-0.74,0.12,-0.40,1.06,-0.19,-1.12,0.07,-0.28,-0.05
china;-0.22427,0.27,0.05,1.46,0.06,-0.51,0.45,-0.32,0.57,-0.04,0.52,-0.18,0.52,-0.05,0.19,0.30,-0.45,0.38,0.33,0.42,0.98,-0.76,-0.06,-1.00,1.19,-2.39,0.24,-0.40,-0.63,-0.20,3.88,0.75,0.14,0.24,-1.01,-0.76,-0.63,0.73,-1.20,0.18,-1.21,-0.55,1.30,-0.82,0.99,0.15,-0.65,0.28,0.45,-0.85
south;-0.039674,0.47,-0.31,0.38,-0.59,-0.38,-0.68,0.15,0.46,-0.90,-0.38,-0.82,0.03,-0.93,-0.82,0.37,0.93,0.19,-1.01,0.59,-0.18,0.34,0.09,0.48,0.19,-1.97,0.77,0.16,-0.68,-0.12,3.50,-0.23,0.12,0.22,0.54,-0.74,-0.30,-0.19,-0.77,-0.13,-0.54,0.06,0.88,-1.05,0.18,0.88,-0.43,-0.49,-0.10,-0.77
american;-1.0988,0.48,-0.50,0.14,0.41,0.32,-1.45,-0.52,-0.08,-0.23,0.43,-0.14,0.12,0.71,0.03,-0.60,0.03,0.01,-0.87,-0.21,0.10,0.61,-0.44,-0.03,-0.23,-2.09,-0.85,-0.97,0.06,0.26,3.03,-0.38,-0.17,-0.47,-0.08,-0.65,-0.76,-0.30,-0.44,-0.34,-0.15,9.0824e-03,1.23,-0.35,0.87,0.31,-0.54,-0.10,-0.86,0.42
police;0.49725,-1.19,0.37,-0.08,0.69,-0.69,-0.25,0.59,0.05,-1.49,-0.07,-1.00,-0.73,-0.40,0.43,-0.46,-0.36,0.29,-0.62,-0.41,0.28,1.17,-0.21,0.62,-0.85,-2.46,0.14,0.06,-0.37,-0.65,2.74,-0.28,-0.45,-1.35,0.58,1.01,0.67,-1.17,0.36,1.18,-0.28,1.22,0.58,-0.20,0.90,-0.88,-0.85,0.12,0.85,-0.65
team;-0.62801,0.12,-0.39,0.87,0.28,-0.41,-1.42,0.80,-0.27,-0.82,1.02,0.18,-1.76,0.18,0.56,-0.38,0.61,0.51,-1.51,-0.45,-1.19,0.33,0.18,0.10,-0.35,-1.57,-0.02,-0.38,-0.60,-0.59,2.99,1.20,-0.52,-0.76,0.63,0.63,0.30,1.01,5.0781e-03,-1.03,-0.29,-0.77,-0.27,-0.18,0.04,0.32,0.01,0.85,0.03,-0.05
international;-0.1666,0.68,-0.76,0.55,-0.28,-1.00,-0.35,-0.46,0.99,0.21,0.87,0.22,-1.07,0.32,0.14,-0.10,0.57,0.06,-0.73,-0.29,1.19,0.70,-0.77,0.04,-0.84,-1.68,0.33,-0.65,-1.25,0.34,3.39,0.81,-0.48,-0.85,-0.49,-0.45,-0.17,-0.10,-0.28,0.03,0.09,0.02,1.08,-0.47,-6.9481e-03,0.48,-0.34,0.91,-0.08,-0.46
high;-0.65758,1.25,0.19,-0.67,-0.10,-0.04,-0.27,-0.48,0.39,0.37,-0.24,-0.64,0.27,-0.62,-0.52,0.29,-0.19,0.36,-0.81,-0.48,0.11,0.06,-0.38,-0.18,-0.57,-1.87,0.61,0.43,-0.09,0.17,3.48,0.02,0.60,-0.78,1.24,-0.32,-0.15,0.12,0.65,-0.27,-0.69,0.46,0.19,0.40,0.06,0.04,0.72,-0.45,-0.19,0.09
work;0.51359,0.19,-0.51,-0.86,0.01,0.10,-0.80,-0.33,-1.6119e-04,0.01,0.04,0.46,-0.47,0.11,0.39,-0.43,0.39,0.27,0.42,-0.60,0.81,0.45,-0.12,-0.22,0.64,-1.27,-0.72,-0.69,0.02,-0.23,3.79,-0.12,-0.47,-0.99,-0.21,0.50,0.02,0.80,0.19,0.28,-0.15,-0.30,0.16,-0.18,-0.03,-0.17,0.02,0.04,-0.62,0.35
our;0.3466,0.40,-0.07,-0.57,1.19,-0.51,-0.23,-0.03,0.57,-0.27,0.07,0.75,-0.72,0.07,-0.05,0.40,0.46,-0.03,0.85,-0.83,-0.25,0.64,4.8025e-03,-0.33,0.64,-1.81,-1.15,-0.13,1.10,-0.37,3.90,1.43,-0.54,-0.55,-0.49,0.12,-0.44,-0.10,-0.18,-0.21,-0.46,-0.69,0.17,0.38,-0.01,0.33,-0.37,0.31,-0.18,0.10
home;0.23302,0.45,0.26,0.03,0.56,-0.51,-1.78,0.43,1.3246e-03,0.01,-0.51,-0.54,-0.25,-0.37,0.40,0.07,-0.26,-2.7769e-03,-0.51,0.29,0.14,0.53,-0.62,0.41,-0.22,-1.62,0.29,-0.01,0.51,-0.61,3.23,0.74,0.18,0.02,0.57,0.52,0.15,0.41,0.55,-0.40,-0.18,0.20,-0.23,0.11,-7.494e-03,0.57,-0.43,-0.80,0.20,-0.19
school;-0.90629,1.24,-0.79,-1.40,-0.03,-0.25,-1.28,-0.58,-0.11,-0.56,-0.34,-0.39,-9.0178e-03,-1.06,-0.35,-0.05,-0.37,1.09,-0.19,0.44,0.45,0.72,-0.61,0.63,-0.49,-1.75,0.05,-0.52,-1.02,-0.89,3.06,0.14,-0.13,-1.39,1.21,0.40,0.41,0.27,0.98,0.02,-0.87,-0.51,-0.30,0.37,0.01,0.23,0.49,-0.56,-0.18,0.62
party;-0.5527,-0.18,0.41,0.18,0.32,0.81,-0.25,-0.03,-1.28,-0.69,-0.43,-0.84,-0.44,0.81,-0.42,-0.25,0.22,-0.24,0.74,-0.18,-0.20,-0.10,0.43,0.34,4.7003e-03,-1.87,-0.45,-0.59,-1.07,0.89,3.29,0.60,-1.83,-1.393e-03,-1.20,-0.54,-0.20,-0.01,-0.47,-0.35,-0.43,0.10,-1.53,-0.10,-0.30,1.3978e-03,-1.93,-0.42,1.01,-0.59
house;0.60137,0.28,-0.03,-0.43,0.74,0.26,-0.97,0.07,-0.57,-1.18,-1.85,-0.24,0.05,8.6155e-03,0.06,0.40,-0.07,-0.21,0.37,-0.71,1.22,0.35,-0.41,-0.21,-0.39,-1.78,-0.41,0.29,-0.41,0.02,2.74,-0.99,-0.71,-0.46,0.28,-0.07,0.30,-0.06,0.39,-0.70,-0.38,0.23,-0.49,0.14,-0.02,0.56,-0.86,-1.02,0.03,0.20
news;-0.20825,0.47,0.52,1.05,-0.10,-1.12,-1.25,-0.11,-0.07,-0.77,-0.37,-0.24,-0.39,0.42,0.98,0.12,-1.37,-0.22,-0.18,0.41,0.96,0.89,0.84,0.57,0.46,-1.72,-0.63,0.56,-0.12,0.49,3.33,0.03,0.46,-0.44,-1.19,-0.47,-0.31,-0.64,0.08,0.07,0.70,0.52,-0.12,-0.46,0.24,0.28,-0.62,1.44,0.51,0.74
long;0.46955,0.82,-0.13,-0.45,-0.07,0.45,-0.37,-0.31,0.04,-0.23,-0.65,7.6419e-03,-0.52,0.29,0.23,0.19,0.17,-0.02,-0.30,-0.27,-0.50,0.06,0.04,-0.37,0.28,-2.01,0.32,0.69,0.33,0.05,3.79,0.01,-0.02,0.40,-0.06,-0.32,-0.42,0.34,-0.40,-0.26,-0.54,0.20,0.12,0.53,-0.10,-0.57,0.26,-0.38,-0.81,-0.08
military;0.65888,-0.54,0.19,-0.30,0.40,-0.95,0.40,0.21,-0.27,-1.30,0.08,-0.43,-0.36,-0.03,-0.60,-0.36,-0.45,0.47,-0.31,0.12,0.03,0.45,-0.40,-1.14,-0.84,-2.60,-0.35,-0.50,0.34,1.04,3.40,-0.17,-1.25,-0.85,0.34,1.02,-0.22,-0.35,-1.38,0.50,-0.36,0.42,0.87,-0.62,0.20,-0.63,-0.58,0.88,-0.84,-0.03
my;-0.27279,0.77,-0.10,-0.91,0.90,-0.07,-0.47,0.44,0.16,0.07,-0.16,0.86,-0.76,-0.01,0.78,0.29,-0.74,0.20,0.65,-0.62,-0.43,1.18,0.47,9.3866e-03,1.13,-2.43,-1.56,0.49,1.09,-0.97,3.46,1.04,-0.65,0.57,-0.12,0.26,0.16,0.41,0.75,-0.77,0.03,-0.28,-0.72,0.63,0.08,-0.30,0.36,-0.73,0.04,0.26
north;0.30059,0.55,-0.04,0.02,-0.57,-0.24,-0.85,0.37,0.46,-1.16,-0.52,-0.78,0.04,-0.99,-1.08,0.65,0.71,0.48,-0.90,0.67,0.27,0.08,0.09,0.52,0.07,-2.14,0.58,0.57,-0.06,-0.43,3.41,-0.63,0.11,-0.25,0.55,-0.82,-0.39,-0.45,-0.75,0.22,-0.52,-0.25,0.67,-1.01,-0.13,0.64,-0.33,-0.10,-0.61,-0.38
security;0.52125,-3.3878e-03,0.81,0.04,0.50,-0.95,0.31,-0.45,0.52,-1.53,-0.44,-0.36,-0.80,0.25,-0.16,0.56,-0.01,-0.23,0.83,-0.03,0.45,0.70,-0.44,-0.56,-0.63,-2.05,0.55,0.04,0.15,0.53,3.48,0.24,-0.91,-1.18,-0.18,0.76,0.29,-0.72,-0.65,0.39,-0.34,0.36,0.85,-0.30,0.21,-0.32,-0.56,1.21,0.18,0.06
york;-0.31828,0.78,-0.26,-0.10,0.11,-0.39,-1.87,-0.34,-0.59,-0.10,-0.96,-0.18,-0.25,0.38,0.19,-0.39,-0.63,-0.40,-1.04,0.34,1.35,0.17,-0.57,0.23,-0.85,-1.94,0.02,0.10,0.02,-0.63,2.54,-0.15,0.69,-1.01,-0.06,-0.82,-0.12,0.14,0.60,-0.12,-0.29,0.24,0.47,-0.05,-0.26,0.72,-0.47,-0.36,-0.17,1.12
how;0.68938,-0.10,0.17,-0.37,0.75,7.8149e-04,-0.53,-0.19,-0.14,0.12,-0.28,0.70,-0.54,0.19,0.96,0.60,0.40,-0.03,0.53,-0.87,-0.20,0.56,0.65,0.14,1.01,-2.07,-1.12,5.9662e-04,0.70,-0.82,3.44,0.32,-0.35,-1.03,-0.14,-0.14,-0.41,0.33,0.19,-0.25,-0.47,0.06,0.32,0.68,0.36,0.21,0.16,0.41,-0.22,0.61
public;0.034236,0.50,-0.19,-0.26,-0.26,-2.4169e-03,-0.42,-0.29,0.21,-5.3071e-03,-0.68,-0.21,0.24,-0.45,0.07,-0.12,-0.36,0.12,0.38,-0.43,1.15,0.51,-0.50,-0.18,-0.16,-2.03,-0.02,-0.04,-0.33,0.22,3.44,0.58,0.15,-1.74,-0.81,0.04,0.19,-0.28,0.13,-0.09,-0.17,0.07,-0.19,0.71,-0.19,0.01,-1.21,0.39,0.52,0.33
court;-0.35445,-0.55,-1.02,0.59,0.57,-0.06,0.72,1.26,-0.13,-0.34,-0.45,-0.32,-0.50,-0.40,0.96,0.23,-0.60,-0.96,8.8542e-03,-0.43,0.86,0.53,-0.37,0.09,-0.95,-3.05,0.13,-0.27,-0.87,-0.47,2.58,-1.04,-0.76,-0.83,0.37,-0.58,0.94,-8.2917e-03,0.05,-0.37,-0.15,0.67,0.57,0.80,-0.70,0.28,-0.62,-0.47,0.13,-0.33
foreign;0.019228,0.45,0.14,0.18,0.60,-0.51,-0.35,-0.09,-0.85,-0.52,0.38,0.73,0.49,0.76,0.74,-0.01,0.56,-0.53,0.79,-0.01,1.21,0.14,0.25,-0.31,0.20,-1.64,0.82,-0.68,-0.76,1.08,3.61,0.51,0.18,0.30,-0.15,0.06,-0.64,0.06,-1.02,0.65,-0.24,1.11,1.59,-1.00,0.75,-0.87,-1.44,1.57,0.51,-0.16
family; 1.1636,0.90,-0.74,0.49,1.88,0.92,-1.04,0.01,-0.51,-0.68,8.3396e-03,0.50,0.51,-0.75,1.02,0.17,-0.91,0.21,0.19,0.19,4.4282e-03,0.40,-0.38,0.51,0.14,-1.46,-0.55,-0.83,0.41,0.40,2.53,-0.20,0.08,-0.10,0.52,0.02,-0.65,-0.14,0.44,-0.04,-0.23,0.17,-0.16,0.60,0.47,0.11,-0.96,-1.34,-0.02,0.04
good;-0.35586,0.52,-0.61,-0.30,0.94,-0.31,-0.59,0.12,-0.03,0.55,-0.10,0.63,-0.47,-0.07,0.38,0.08,0.82,0.22,-8.3764e-03,-0.76,-0.56,0.61,0.20,-0.04,0.87,-1.65,-0.77,0.15,0.94,-0.39,3.73,0.82,-0.14,0.01,0.21,-0.03,-0.15,0.86,0.26,-0.71,-0.03,1.8282e-03,-0.17,0.27,0.11,0.14,-0.05,0.27,0.31,0.92
university;-1.1082,1.29,-0.78,-0.45,-0.40,-0.53,-0.91,-0.48,-0.31,-0.33,0.50,-0.50,0.02,-1.17,-0.47,0.27,-0.11,1.01,-1.04,1.49,0.70,0.72,-0.10,-1.9169e-03,-0.07,-2.53,0.12,-0.86,-2.12,-0.90,2.61,-0.04,-0.09,-2.24,-0.06,8.3282e-03,-0.10,1.24,1.73,0.66,-0.11,-0.06,-0.29,0.37,-0.09,0.48,0.36,0.26,-0.54,0.03
major;0.2492,0.37,-0.12,0.93,-0.33,0.10,-0.60,0.25,0.19,-0.20,-0.17,0.01,-0.94,3.5561e-03,-0.09,-0.42,0.31,-0.22,-0.50,-0.04,0.50,-0.95,-0.38,-0.19,-0.57,-1.33,-0.53,-0.80,-0.09,0.66,3.81,0.11,0.63,-0.45,0.25,0.25,-0.20,0.04,-0.18,0.56,-0.89,0.19,-0.27,-0.34,0.20,0.27,-0.59,0.60,-0.12,0.15
bank;0.66488,-0.11,0.67,0.17,0.68,-0.47,-0.30,0.17,-0.70,-0.55,0.15,0.10,-0.45,-0.33,0.05,1.22,0.55,-0.68,0.03,0.70,1.90,-0.61,-0.83,-0.30,-1.11,-1.55,0.26,0.22,-1.03,-0.31,3.50,-0.25,1.01,0.65,-0.18,-0.75,-0.30,-0.91,1.06,-0.66,-0.37,-0.29,0.65,-0.44,-0.07,-1.05,-0.60,0.73,1.01,-0.27
use;0.36404,-0.16,0.28,-0.17,-0.42,0.43,-0.23,-0.89,0.06,0.37,0.41,0.72,0.72,-0.08,-0.18,0.58,-0.05,0.19,-0.02,-1.20,0.47,-0.53,0.17,0.05,-0.19,-1.74,-0.19,-0.44,0.85,-0.51,3.74,-0.09,-1.11,-0.73,0.36,0.62,0.35,0.14,-0.42,0.16,0.74,0.14,0.41,0.80,0.58,0.10,0.11,0.40,-0.08,0.04
members;0.49879,0.14,0.39,-0.41,0.79,0.17,-0.42,0.06,-0.56,-0.94,0.07,-0.22,0.08,0.61,0.14,-0.45,0.03,0.17,0.20,-0.68,0.06,0.30,0.86,0.44,-0.90,-1.33,-0.01,-1.02,-1.58,-0.14,3.39,0.45,-0.87,-0.63,-0.04,-0.36,0.28,-0.99,-0.34,0.27,-0.66,-0.23,-0.02,0.31,0.21,-0.24,-1.49,0.08,-0.77,-0.26
sunday;0.30272,0.47,0.01,0.75,0.10,-0.97,-1.10,1.03,-0.43,-0.81,-0.71,-1.50,-0.71,0.20,0.83,-0.03,-0.63,-0.73,-1.28,0.11,0.04,0.76,0.36,0.02,0.12,-1.60,0.46,0.57,-0.40,0.12,3.22,0.80,-0.81,0.08,-0.19,-0.19,0.71,0.06,-0.12,0.09,-0.09,0.33,-0.47,-0.58,0.49,0.67,-0.57,0.59,0.42,-0.51
times;-0.39921,0.63,0.34,-0.14,-0.11,-0.48,-0.87,-0.19,-0.42,-0.23,-0.50,-0.09,-0.30,-0.14,1.22,-0.11,-0.59,-0.48,-0.98,0.03,0.17,0.26,0.96,0.25,0.44,-1.48,-0.47,0.04,0.15,0.23,3.33,-0.10,0.85,-0.29,-0.14,-0.37,0.09,0.30,-0.03,0.12,0.01,0.43,0.44,0.58,-0.39,0.21,-0.13,-0.01,-0.19,0.24
economic;-0.00023945,0.39,-0.16,-0.03,-0.06,-0.51,0.19,-0.93,-0.10,0.09,-0.06,0.01,-0.72,0.29,-0.09,0.31,0.45,-0.85,0.73,0.18,0.37,-0.67,-0.67,-1.18,0.52,-1.34,-0.10,-0.13,0.01,1.69,4.14,0.87,0.35,-0.90,-1.09,-0.59,-1.41,0.19,0.12,-0.07,-1.98,-0.17,0.53,-0.67,0.27,0.18,0.09,1.24,0.83,0.02
best;-0.91572,0.60,-0.31,0.28,0.54,-3.9229e-03,-0.94,-0.30,0.07,0.82,-0.16,0.41,-0.48,0.61,0.70,-0.60,0.89,0.11,-0.77,-0.52,-0.10,0.38,0.27,0.37,0.49,-1.14,-1.15,-0.72,-0.03,-0.45,3.34,0.56,8.8944e-04,-0.20,0.53,0.28,-0.08,0.97,-0.35,-1.08,-0.05,0.30,4.7155e-03,-0.25,-0.35,0.26,0.19,-0.05,0.07,0.76
business;0.023693,0.13,0.02,0.49,0.02,-0.43,-1.13,-0.82,0.22,-0.03,-0.06,0.39,-0.58,0.09,-0.02,0.23,-0.42,0.65,0.57,-0.51,1.82,0.12,-0.61,0.39,-0.35,-1.67,-0.45,-0.47,0.19,0.35,3.60,0.32,0.47,-0.33,-0.46,-0.51,-1.37,0.70,0.46,-0.16,-0.09,-0.28,0.30,0.50,0.08,-0.01,-0.51,0.34,0.24,0.82
west;-0.050383,0.48,-0.08,-0.19,-0.16,-0.36,-0.83,0.43,0.37,-0.78,-0.79,-0.79,-0.36,-0.72,-1.05,0.52,1.23,-0.11,-1.00,0.81,0.26,0.30,-0.15,0.94,-0.36,-1.70,0.40,0.31,0.03,-0.35,3.25,-0.35,0.44,-0.16,0.57,-0.29,-0.13,-0.58,-0.32,0.09,-0.37,0.33,0.25,-0.89,-0.71,1.08,-0.30,-0.63,-0.41,-0.40
law;-1.2328,-0.11,-0.77,-0.50,-0.06,0.69,0.18,-0.76,5.4416e-03,-0.36,-0.16,0.59,-0.14,-0.33,0.22,1.5343e-03,-0.01,-0.59,0.62,0.08,0.72,0.31,-0.49,-0.14,-0.52,-2.93,0.13,-1.05,-0.25,-0.27,2.83,-0.80,-1.24,-1.38,-0.05,-0.48,0.17,-0.22,0.52,0.47,-0.55,0.25,1.03,1.04,-0.95,-0.03,-0.43,0.10,0.20,0.36
women;-0.95897,0.86,-0.53,-0.19,0.42,0.93,0.06,-0.21,0.39,-0.53,0.42,-1.33,-0.03,-0.15,0.94,-0.21,-0.15,0.08,-0.05,-0.55,-0.53,1.24,0.63,0.79,9.7936e-03,-1.71,-0.77,-1.00,-0.69,-0.50,3.05,1.49,-0.32,-0.53,-0.21,-0.14,-0.02,0.58,-0.56,-0.55,-0.60,-0.57,1.33,0.67,1.06,-0.41,-0.44,-1.01,-0.35,-0.31
power;0.045752,0.06,1.19,0.38,-0.16,0.36,0.51,0.04,-0.42,0.69,0.31,0.28,-0.45,0.12,-0.69,0.57,0.20,0.74,-0.02,-0.61,0.26,-0.39,-0.37,-0.69,-0.05,-1.96,0.09,-0.52,0.87,0.88,3.54,0.39,-0.74,-0.49,-0.01,0.23,-0.44,0.04,-0.02,0.18,-0.24,0.45,-0.62,0.13,-1.08,0.79,-0.73,-0.45,-0.30,-0.73
service;0.13409,0.68,0.45,0.05,-0.30,-0.58,-1.12,-0.03,1.03,-1.39,0.18,0.38,0.27,-0.13,-0.19,-0.40,-1.59,0.33,-0.03,-0.10,1.02,-0.03,-0.58,0.51,-0.12,-1.63,0.04,-0.71,0.23,0.34,3.55,0.38,0.08,-0.49,-0.24,0.24,0.59,-0.37,-0.23,0.29,0.93,-0.24,0.24,0.23,-0.62,-0.16,-0.40,0.29,-6.097e-03,0.94
children;0.53888,0.50,-0.04,-1.36,0.67,1.41,-0.85,-0.66,0.45,-0.15,-0.03,-0.20,0.54,-0.64,1.22,-0.26,-0.45,0.27,0.38,0.14,2.6343e-03,1.70,0.56,0.60,0.43,-1.17,-0.45,-0.98,0.19,-0.64,3.10,1.08,-0.17,-0.81,0.28,0.65,0.38,-0.27,0.62,-0.05,-0.64,0.10,0.79,0.10,0.66,-0.06,-0.63,-1.24,-0.03,0.18
system;0.33811,-0.23,0.77,0.20,-0.96,0.21,0.06,-0.79,0.35,-0.18,0.80,0.66,6.2125e-03,0.41,-0.83,0.39,-0.57,0.69,0.26,-0.26,-0.11,-0.85,-0.82,-0.01,0.10,-1.80,-0.11,-0.26,0.31,0.17,4.06,-0.36,-0.42,-1.08,-0.20,0.49,0.46,-0.12,0.23,-0.09,0.01,-0.37,0.06,1.06,-1.02,0.30,0.33,0.23,0.40,0.11
john;-0.061106,0.92,-0.02,-0.82,0.35,0.51,-1.73,-0.07,-0.52,-0.91,-0.89,1.34,-0.52,-0.68,-6.1652e-05,-0.22,0.03,-0.80,-1.03,-0.33,-0.26,0.21,-0.16,-0.63,0.05,-1.82,-0.19,-0.90,-0.70,0.55,1.70,-0.75,5.5337e-03,-0.61,0.54,-0.41,0.29,-0.24,0.29,-0.41,0.55,1.16,-1.06,-0.23,0.28,0.72,-0.59,-0.92,-0.82,1.06
support;0.36274,-0.03,0.73,-0.41,0.17,0.28,-0.24,-0.26,-0.05,-0.04,0.07,-0.10,0.24,-0.27,-1.02,-0.14,0.15,-0.31,0.71,-0.42,-0.04,0.10,-0.25,-0.61,-0.10,-1.73,0.38,-0.72,-0.46,0.56,3.77,0.75,-0.99,-0.73,-0.32,-0.23,-0.12,-0.16,-0.79,-0.63,0.20,-0.03,-0.36,-0.38,-0.12,0.01,-0.89,0.51,-0.29,0.06
office;0.25481,0.05,0.32,0.21,0.48,-0.75,-0.78,-0.29,0.02,-1.29,-0.69,-0.33,-0.36,-1.1398e-03,0.51,0.27,-0.86,0.07,0.62,-0.04,1.06,0.24,-0.53,-0.31,-0.74,-2.10,0.02,0.43,-0.68,0.19,2.87,-0.25,-0.56,-1.11,-0.29,0.29,0.40,0.21,0.64,-0.18,-0.28,0.59,-0.27,-4.9195e-03,-0.73,-0.15,-0.99,-0.04,0.72,0.41
washington;-0.5102,1.03,0.10,9.7878e-04,-0.06,-0.49,-1.25,0.06,-0.09,-0.68,-1.21,-0.13,-0.37,0.09,-0.06,0.22,-0.10,-0.70,0.09,0.47,0.66,0.34,3.3139e-03,-0.26,-0.29,-2.59,0.52,0.22,0.25,-0.49,2.39,-4.2369e-03,-0.26,-1.29,-0.33,-0.66,-0.55,-2.1881e-03,-0.01,0.11,-0.40,0.33,0.56,-0.56,0.17,1.01,-0.51,0.72,-0.77,0.69
european;-0.0080185,0.41,-0.68,0.01,-0.33,0.16,-0.65,-0.47,-0.33,-0.48,1.22,0.04,-0.60,0.96,0.61,0.33,0.89,-0.61,-0.56,-0.71,0.39,-0.58,-0.62,0.35,-0.33,-1.33,-0.03,-0.25,-1.22,0.97,3.45,0.67,-0.27,0.01,-0.74,-0.76,-0.32,0.53,-0.85,-0.67,0.10,-0.40,1.60,-0.51,0.26,0.78,-0.33,1.06,-0.04,-0.90
league;-1.5476,0.94,-0.90,0.72,-0.06,-0.27,-1.30,0.72,-0.94,-0.24,0.46,0.16,-1.36,0.13,0.40,-0.68,0.83,-0.02,-1.40,0.77,-1.13,-0.73,0.29,0.65,-1.46,-1.37,0.62,-0.34,-0.36,-0.27,2.98,1.31,-0.11,-0.15,0.42,0.44,0.43,0.27,-0.36,-0.73,-0.40,-0.74,-0.71,0.30,-0.82,0.87,-0.80,0.99,0.24,-0.46
without;0.28797,-0.02,-0.08,-0.44,0.23,0.34,-0.30,0.40,0.11,0.23,0.17,0.33,-0.50,0.01,0.68,0.27,-5.0638e-03,-0.59,0.08,-0.65,0.03,0.41,0.26,-0.20,0.13,-1.71,0.24,0.18,1.08,-0.29,3.63,0.49,-0.57,-0.62,-1.7535e-03,0.36,0.50,0.25,-0.12,-0.05,0.12,0.03,0.21,0.68,-0.38,-0.14,-0.25,0.30,0.07,-0.21
british;-0.25236,-0.02,-0.52,-0.47,-0.01,0.49,-1.14,0.22,0.10,-1.18,0.45,0.34,-0.15,0.26,-6.8722e-04,0.11,0.35,-0.03,-1.45,-0.12,1.18,0.82,-0.39,0.25,-0.26,-1.98,-0.80,-0.90,-0.53,1.45,2.72,-0.62,-0.04,0.17,0.36,-0.18,-0.08,-0.59,-1.01,-0.75,0.74,0.10,1.03,-0.67,0.44,0.09,-0.98,0.05,-0.13,-0.39
white;-0.68652,0.80,-0.61,-0.15,0.99,0.81,-1.20,-1.02,-0.94,-1.26,-0.68,-0.12,0.61,0.04,-0.10,0.12,-0.17,-0.45,-0.37,-1.40,-0.42,0.31,0.61,-0.76,-0.75,-1.56,-0.14,1.20,0.36,-0.49,2.61,-0.37,-0.80,-0.56,0.02,-0.20,-0.36,-0.51,-0.23,-0.72,-0.08,0.47,-0.03,-0.04,0.85,-0.25,-0.48,-0.79,-0.12,-0.09
history;-0.82643,1.09,-1.10,0.07,0.15,0.18,-0.93,-0.19,0.02,-0.08,-0.36,-0.05,-0.55,3.0452e-03,0.76,-0.73,-0.08,0.06,-0.64,0.88,-0.33,7.1404e-03,-0.58,-0.01,0.49,-2.08,-1.68,-0.63,0.13,0.21,2.85,-0.43,0.14,-0.81,-0.10,0.38,-0.70,0.67,-0.09,-0.16,-0.64,-0.31,0.18,0.76,-0.62,0.77,0.38,0.45,-0.37,-0.65
trade;-0.73235,0.02,-0.70,0.74,0.36,-0.34,-0.99,-1.18,0.22,-0.02,0.15,0.43,-0.36,0.50,0.48,0.10,0.30,-1.08,0.46,-0.06,1.03,-0.66,-0.52,-0.70,-0.24,-1.31,1.21,0.04,0.61,0.12,3.56,0.23,0.04,0.29,-0.89,-0.97,-0.87,0.09,-0.57,0.68,-1.12,-0.13,1.22,-0.46,0.28,0.11,-0.61,1.02,0.20,-0.11
center;0.26664,1.11,-0.07,0.60,0.45,-0.58,-1.14,-0.78,0.92,-0.56,-0.19,-0.93,-0.39,0.53,-0.64,0.15,0.14,0.16,-0.61,0.45,-0.11,0.51,-1.15,-0.29,-0.53,-1.36,0.55,-0.03,-0.36,-0.81,3.07,0.13,-0.06,-1.40,-0.51,0.30,0.21,0.47,1.58,0.94,-0.30,0.34,-0.08,0.06,0.07,0.79,0.10,-0.41,-0.39,0.64
israel;0.062029,0.53,0.54,-0.53,0.47,0.46,0.02,0.68,-0.51,-0.22,-0.07,-1.12,-0.55,0.19,-0.09,1.37,1.25,-1.12,0.39,1.54,0.63,0.56,-0.30,-0.31,-0.08,-2.05,0.43,0.03,0.75,-9.8003e-04,2.89,-0.10,-0.91,0.06,-0.62,-0.04,0.75,-0.79,-1.05,0.93,0.05,-0.24,0.38,-1.09,0.72,-0.26,-0.93,1.51,-0.96,-0.19
oil;0.27875,-0.18,0.72,0.41,0.42,-0.48,-0.61,0.11,0.65,0.77,0.47,0.33,0.61,0.19,0.15,0.43,0.72,0.11,-0.54,-0.74,1.31,-0.84,0.82,-1.50,-0.66,-1.44,0.45,0.91,1.47,1.40,3.21,-0.59,-0.05,0.81,-0.03,-0.46,-1.78,0.32,1.09,0.31,-0.22,0.47,0.88,-1.06,0.19,0.55,-1.09,0.94,-0.05,-0.83
film;0.06912,0.22,-0.66,-0.14,0.06,0.41,-0.21,-1.04,0.02,1.33,-0.08,0.66,-0.45,0.95,1.31,-0.62,0.56,0.65,-1.23,0.29,1.23,0.80,0.40,0.39,0.57,-1.36,-1.67,0.06,-0.59,-0.63,2.58,-0.56,0.46,-0.92,-0.44,0.42,0.17,-0.01,-0.75,-0.97,0.02,1.22,-0.17,-1.57,-0.95,-0.10,0.24,-0.93,-0.20,0.67
east;0.2081,0.81,-0.11,0.03,-0.01,-0.69,-0.59,0.26,0.10,-1.14,-0.64,-0.80,-0.21,-0.61,-1.00,0.48,1.01,0.26,-0.82,0.96,0.30,-0.08,-0.29,0.78,0.02,-1.63,0.44,0.32,-0.18,-0.13,3.26,-0.27,0.34,-0.41,0.25,-0.55,-0.61,-0.38,-0.46,0.52,-0.71,-0.08,0.49,-0.99,-0.65,1.07,-0.13,-0.45,-0.30,-0.59
central;0.29936,0.23,-0.12,0.15,0.10,-1.04,0.01,-0.07,-0.05,-0.83,-0.03,-1.00,0.35,-0.38,-0.66,0.47,0.07,0.33,-0.11,0.72,0.30,-0.93,-0.44,0.40,-0.52,-1.75,0.25,0.76,-0.97,-0.18,3.84,-0.21,0.51,-0.71,-0.35,0.02,-0.39,-0.22,0.19,0.20,-0.69,0.43,0.01,-0.98,-0.32,0.68,-0.11,2.419e-03,0.50,-0.65
air;0.62431,-0.23,0.21,-0.21,-0.45,-1.02,-0.19,0.13,0.92,-0.83,0.88,0.06,0.16,0.96,-0.93,0.31,-0.63,0.69,-1.90,-0.87,0.47,0.36,0.16,-0.63,-0.58,-1.83,-0.12,0.83,0.98,0.78,3.04,0.54,-0.52,-0.31,0.21,0.03,0.40,-0.27,-0.28,0.76,0.42,0.75,0.61,-0.71,-0.23,0.36,-0.24,-0.18,-0.89,0.77
chinese;-0.51742,0.40,-0.35,0.78,0.33,-0.79,-0.09,-0.19,-0.25,-0.04,0.64,0.05,1.15,0.49,0.17,-0.38,-0.74,0.60,0.10,-0.09,0.86,-0.22,1.7747e-03,-0.50,1.14,-2.20,-0.48,-0.93,-0.94,-0.32,3.65,0.36,0.02,0.29,-0.32,0.04,-0.63,0.41,-1.20,0.34,-0.76,-0.28,1.32,-0.16,1.76,-0.46,-0.71,0.29,0.49,-1.13
town;0.70336,0.30,-0.63,-0.41,0.23,-0.43,-1.16,0.47,-0.51,-0.79,-0.61,-1.68,0.53,-1.69,-0.21,0.34,0.81,0.88,-0.83,0.75,0.30,0.51,-0.47,1.19,-0.26,-1.43,-0.30,0.87,0.43,-0.39,2.90,-0.25,-6.9049e-03,-0.20,0.97,0.31,-0.27,-0.27,0.35,0.55,-0.22,0.50,-0.16,-0.78,-0.70,0.09,-0.65,-0.79,0.48,-0.78
leader;-0.1567,0.26,0.78,0.65,1.20,0.35,-0.34,0.31,-1.15,-0.16,0.15,-0.53,-1.34,0.51,-0.46,-0.19,0.27,-0.26,0.25,0.33,-1.04,0.52,-0.35,-0.19,-0.08,-2.33,0.12,-0.94,-1.02,1.35,2.55,-0.16,-1.72,0.32,-0.30,-0.63,-0.22,-0.15,-0.43,0.05,-0.09,0.75,-1.31,-0.75,0.82,0.05,-1.48,-0.11,0.27,-0.48
army;0.33636,-1.12,0.46,-0.78,0.77,-0.91,-0.19,0.81,-0.58,-2.25,0.29,-0.41,-0.57,-0.61,-0.73,-0.59,-0.25,0.29,-0.63,0.43,-0.43,0.10,-0.12,-0.59,-0.88,-2.25,-0.60,-0.97,0.13,0.68,3.03,-0.52,-1.21,-0.27,0.45,1.35,9.8659e-03,-0.68,-0.63,0.52,0.13,0.18,-0.02,-1.00,0.55,-0.77,-0.45,-0.05,-0.88,-0.11
forces; 1.0204,-1.33,0.63,-0.48,0.40,-0.85,0.56,0.68,-0.76,-1.55,0.49,-0.54,-0.73,-0.32,-1.05,-0.06,0.37,-0.10,-0.58,0.11,-0.26,0.11,0.36,-0.62,-0.70,-1.78,-0.29,-0.75,0.66,0.83,3.51,-0.02,-1.22,-0.68,-0.12,0.88,-0.63,-0.77,-1.22,0.73,0.03,0.30,0.29,-1.07,0.32,-0.82,-0.50,0.01,-0.81,-0.47
de;0.85051,1.08,-1.42,0.21,-0.73,-1.75,-0.34,0.72,-0.87,0.73,0.86,0.65,-0.81,-1.34,0.18,-1.81,0.26,-0.81,-0.47,-0.84,-0.91,0.18,4.6674e-05,0.39,-0.93,-0.26,-0.82,0.11,-0.19,0.49,2.53,-1.09,-1.53,-0.12,-0.06,-1.15,0.05,0.40,0.84,0.62,1.07,0.01,1.06,-1.63,-1.11,-0.86,-0.92,-1.72,1.64,0.83
half;0.27931,-0.28,0.41,-0.62,0.75,0.14,-0.93,-0.01,-0.24,0.27,-0.11,-0.71,-0.25,-0.27,0.67,-0.31,0.39,-0.66,-1.24,-0.28,-0.25,-0.13,0.29,-0.23,-0.22,-1.06,0.54,0.19,0.13,-0.08,3.62,0.75,0.25,0.72,0.27,0.21,-0.13,0.85,0.71,-0.59,-0.01,0.43,1.2805e-03,-0.03,-0.55,0.47,0.09,-0.10,-0.06,-0.47
federal;-0.042333,-0.77,0.49,-0.30,-0.06,0.10,-0.32,-0.14,0.42,-0.79,-0.60,-9.9037e-03,0.29,-0.04,0.31,-0.09,-0.42,-0.53,0.48,-0.48,0.87,-0.69,-0.42,-0.61,-1.33,-2.64,0.46,-0.04,-0.40,0.05,2.98,-0.62,-0.64,-1.37,-0.02,-0.38,0.07,-0.47,0.91,-0.34,-1.01,0.53,0.91,0.60,-1.12,-0.30,-0.66,0.64,0.43,0.56
peace;0.57799,0.99,-0.53,-0.50,0.78,-0.12,-0.22,0.30,-0.06,-0.15,-0.23,-0.30,-1.25,0.01,-0.01,0.37,1.36,-0.64,1.13,0.35,0.13,1.23,-0.18,-0.76,0.43,-1.06,0.13,-0.29,0.24,0.48,3.32,0.11,-2.42,-0.26,-0.41,-0.63,-0.29,-0.74,-0.78,0.21,-0.97,-1.09,-0.37,-1.48,-0.08,0.31,-0.38,0.74,-0.95,-0.92
the;0.418,0.24,-0.41,0.12,0.34,-0.04,-0.49,-0.17,-6.6023e-04,-0.65,0.27,-0.14,-0.55,0.14,-9.5095e-03,0.01,0.10,-0.12,-0.84,-0.12,-0.01,-0.33,-0.15,-0.23,-0.19,-1.88,-0.76,0.09,-0.42,-0.19,4.00,-0.18,-0.52,-0.31,5.9213e-04,7.4449e-03,0.17,-0.15,0.01,-0.05,-0.29,-0.15,-0.34,-0.04,-0.44,0.18,2.7849e-03,-0.18,-0.11,-0.78
of;0.70853,0.57,-0.47,0.18,0.54,0.72,0.18,-0.52,0.10,-0.17,0.07,-0.36,-0.11,-0.83,0.11,-0.16,0.06,-0.01,-0.56,0.01,0.22,-0.14,-0.06,-0.38,-0.23,-1.70,-0.86,-0.26,-0.25,0.17,3.86,-0.16,-0.13,-0.68,0.18,5.2464e-03,-0.33,-0.07,0.24,0.36,-0.34,0.28,0.07,-0.06,-0.38,0.22,-0.21,-0.22,-0.09,-0.80
to;0.68047,-0.03,0.30,-0.17,0.42,0.03,-0.41,0.13,-0.29,-0.08,0.17,0.22,-0.10,-0.43,0.33,0.67,0.05,-0.34,-0.42,-0.43,0.55,0.10,0.18,-0.26,0.03,-2.09,0.22,-0.39,0.20,-0.55,3.88,0.47,-0.95,-0.37,0.20,-0.32,0.12,0.08,0.16,-0.21,-0.09,0.01,0.21,-0.03,-0.19,0.08,-0.09,-0.07,-0.06,-0.26
in;0.33042,0.24,-0.60,0.10,0.03,0.15,-0.55,-0.07,-0.09,-0.32,0.09,-0.82,-0.36,-0.67,0.42,0.01,-0.23,0.12,-1.09,0.43,0.57,-0.10,0.20,0.07,-0.42,-1.79,-0.27,0.11,-0.12,0.03,3.86,-0.17,-0.08,-0.62,0.26,-0.05,-0.07,0.46,0.30,0.12,-0.48,-8.0272e-03,0.03,-0.36,-0.42,0.42,-0.11,-0.50,-0.02,-0.53
a;0.21705,0.46,-0.46,0.10,1.01,0.74,-0.53,-0.26,0.16,0.13,-0.24,-0.44,-0.21,0.51,0.13,-0.43,-0.03,0.20,-0.78,-0.20,-0.09,0.16,-0.61,-0.18,-0.12,-2.25,-0.22,0.50,0.32,0.15,3.96,-0.71,-0.67,0.28,0.21,0.14,0.25,0.23,0.42,-0.44,0.13,0.36,-0.64,0.02,-0.03,-0.26,0.12,-0.04,0.41,0.17
for;0.15272,0.36,-0.22,0.06,0.13,0.37,-0.75,-0.44,0.22,0.10,0.05,0.13,-0.43,-0.21,0.56,-0.21,0.07,0.10,-0.51,-0.40,0.40,0.23,0.20,-0.12,-0.50,-1.71,0.07,-0.39,-0.10,-0.23,3.95,0.66,-0.61,-0.32,0.37,0.25,0.38,0.27,0.04,-0.34,0.02,0.21,0.04,0.14,-0.20,0.07,-0.36,0.43,-0.08,0.12
on;0.30045,0.25,-0.16,0.19,0.02,-0.07,-0.91,-0.19,-0.05,-0.40,-0.26,-0.28,-0.50,0.12,0.39,0.17,-0.44,-0.40,-0.95,-0.16,0.77,0.33,0.33,-0.17,-0.12,-1.78,0.29,0.55,0.02,-0.32,3.92,0.10,-0.57,-0.17,4.1748e-03,-0.16,0.45,-0.16,-0.17,-0.08,-0.08,0.06,-0.19,-0.38,-0.18,0.06,0.09,-0.07,0.23,-0.51
is;0.6185,0.64,-0.46,0.37,0.74,0.53,2.2239e-03,-0.60,0.26,0.11,0.43,0.20,-0.05,-0.34,0.21,0.58,0.53,0.69,-0.15,0.05,-0.60,-0.28,-0.02,0.55,0.25,-1.96,-0.51,0.69,0.06,-0.05,3.78,-0.77,-0.12,-0.51,0.06,-0.32,0.13,0.19,0.13,-0.21,-0.01,0.31,-0.33,-0.02,-0.38,0.19,-0.12,-0.27,0.30,0.48
force;0.735,-1.13,0.34,-0.54,0.69,-0.41,0.37,0.29,0.18,-1.24,0.59,-0.17,-0.36,0.17,-0.86,-0.29,0.32,0.29,-1.10,-0.61,-0.36,0.02,-0.52,-0.77,-0.70,-1.90,0.21,-0.68,0.28,0.81,3.33,0.07,-1.29,-0.69,0.07,0.10,-0.02,-0.86,-0.56,5.0142e-03,-0.13,0.32,0.55,-0.83,-0.28,-0.04,-0.15,0.30,-0.99,0.78
great;-0.026567,1.33,-1.02,-0.37,0.52,-0.12,-0.35,0.37,-0.29,0.09,-0.03,0.92,-0.14,-0.63,0.02,-0.21,0.96,0.47,-1.00,-0.24,-0.36,-4.757e-03,-0.51,-0.46,1.24,-1.83,-1.55,-0.37,0.53,0.20,3.22,0.64,0.37,-0.17,-0.02,0.33,-0.41,0.40,-0.11,0.05,-0.15,0.29,-0.44,0.11,-0.24,0.66,-0.26,-0.49,-0.41,-0.25
union;-0.50265,0.10,-0.48,-0.43,-0.34,0.19,-0.61,0.23,-0.54,-1.29,0.84,-0.10,-0.49,0.06,-0.15,-0.11,0.46,0.23,0.05,-0.79,0.21,-0.36,-0.68,0.23,-0.87,-1.75,0.33,-0.31,-0.93,0.69,3.15,0.23,-1.13,-0.02,-1.02,-0.94,-0.17,-0.69,0.28,0.25,-0.23,-0.42,0.51,-0.50,-0.33,0.41,-1.20,0.75,-0.58,-0.32
small; 1.1419,0.21,0.05,-0.22,0.72,0.55,-0.85,-0.27,0.07,-0.54,-0.16,-0.39,0.94,0.31,-0.57,6.172e-03,0.51,0.59,-0.54,-1.10,0.13,-0.66,-0.16,0.44,-0.42,-1.12,-0.43,0.55,0.39,-0.25,3.85,-0.33,0.38,0.05,0.19,0.50,-0.41,0.16,0.15,-0.06,-6.3997e-03,0.18,-0.03,0.29,0.46,6.6039e-03,-0.30,-0.64,-0.05,-0.45
department;-0.35008,-0.62,-0.61,0.28,0.08,-0.73,-0.73,-0.47,0.99,-1.61,0.17,-0.28,0.07,-0.86,0.27,-0.12,-0.72,0.09,0.53,-0.05,1.03,-0.11,-0.20,-0.38,-0.98,-2.17,-0.25,0.22,-0.88,-0.44,3.05,-0.63,0.02,-1.55,-0.16,0.07,-0.32,0.34,1.21,0.36,-0.30,0.47,0.92,-0.76,-0.20,-0.13,-0.07,1.00,0.20,1.11
every;-0.10258,0.34,0.07,-0.40,1.06,-0.12,-0.41,-0.27,0.16,-0.18,-0.18,-0.63,0.27,-0.04,1.16,0.07,0.12,0.61,-0.70,-0.50,0.17,0.27,0.50,0.36,0.65,-1.43,-0.66,0.24,0.73,-0.47,3.57,0.71,-0.49,-0.18,-0.27,7.9214e-03,0.68,-0.04,0.02,-0.16,-0.23,-0.15,-0.34,0.73,-0.44,-0.22,-0.05,0.04,-0.14,0.40
health;0.31161,0.33,0.03,-0.30,-0.43,0.34,-0.68,-0.83,1.47,-0.52,0.13,-0.06,0.40,-0.35,0.20,0.16,-0.56,-0.13,1.14,0.15,-0.23,0.60,-0.13,-0.37,-0.03,-1.64,-0.10,-0.73,-0.62,0.88,3.39,0.88,-0.20,-1.12,-0.36,0.08,0.05,0.39,1.60,0.03,-0.91,0.07,0.67,0.64,0.74,0.56,-1.00,0.81,0.85,1.04
japan;-0.31739,-0.14,0.32,1.07,0.33,0.39,-0.01,0.07,-0.74,-0.31,1.00,-0.12,0.06,0.64,0.70,0.84,-0.68,0.47,-0.66,0.73,1.11,-0.89,-0.90,-0.47,0.88,-2.01,0.30,-0.31,-0.44,-0.52,3.02,0.70,0.92,0.52,-0.62,-0.58,-0.15,-0.07,-1.07,-0.71,-1.27,-0.85,1.28,-1.21,1.01,0.40,-0.16,0.99,0.03,-0.35
head;-0.28054,0.30,-0.20,0.02,1.12,-0.16,-0.34,-0.15,-0.10,-1.38,0.50,0.34,-1.11,0.75,-0.06,0.26,-0.01,0.40,-0.40,-0.31,-0.55,0.19,0.16,-0.52,-0.45,-2.13,0.01,0.78,-1.06,-9.8552e-03,2.70,0.13,-0.18,0.04,-0.54,0.44,-0.13,0.29,1.10,0.18,-0.40,0.95,-0.59,-0.22,0.52,-0.30,-0.33,-0.20,0.01,-0.15
cup;-0.79369,0.93,-1.00,1.50,-0.06,0.04,-0.50,0.78,-0.16,-0.70,0.35,0.10,-1.48,-0.23,1.61,0.07,0.83,0.33,-2.01,-0.81,-0.33,-0.62,1.29,0.50,-0.60,-0.92,1.735e-03,0.44,-0.25,0.22,2.41,1.40,-0.73,1.21,0.18,0.32,-0.04,1.78,-0.15,-1.81,0.52,-0.61,-0.08,-0.70,0.23,1.88,-0.05,0.18,0.22,-1.11
election;-0.45561,-0.37,0.50,0.32,-0.14,0.57,-0.16,0.48,-0.77,-0.92,-1.00,-1.19,-0.37,-0.05,0.64,-0.06,-0.06,-0.84,-0.07,-0.43,0.45,-0.43,0.89,-0.22,0.17,-1.86,-0.35,-0.17,-0.50,1.27,2.67,0.41,-1.86,-1.40,-0.52,-0.63,0.18,0.32,-0.54,-0.83,-1.00,0.27,-1.23,-0.34,-1.41,0.47,-1.17,0.16,1.29,-0.27
program;0.1212,0.56,0.18,-0.39,-0.75,0.07,-1.02,-0.98,1.27,0.17,0.15,0.05,0.13,0.45,0.38,-0.24,-0.07,1.08,0.31,0.65,0.61,0.08,-0.44,-0.11,-0.14,-1.71,0.33,-0.50,-0.39,-0.14,3.52,0.17,-1.08,-0.97,-0.34,0.53,0.35,0.19,0.02,-0.68,-0.28,-0.57,-0.09,-0.11,-0.28,-0.34,0.52,1.21,-0.61,1.37
today;0.00027751,0.42,-0.08,0.27,0.64,-0.91,-0.63,-0.28,-0.66,-0.28,-0.06,-0.43,-0.10,-0.35,0.72,0.65,-0.29,0.12,-0.02,-0.20,0.20,0.16,0.15,-0.02,0.52,-1.36,-0.56,0.17,-0.09,0.09,3.51,0.10,0.06,-0.08,-0.12,-0.69,-0.01,0.39,-2.8195e-03,0.20,-0.47,-0.12,0.29,0.10,3.4015e-04,0.62,-0.45,0.39,0.01,0.17
statement;0.7552,-0.04,-0.40,0.50,0.81,-0.17,-0.15,-0.10,0.06,-0.61,-0.03,0.05,-0.87,-0.50,0.41,0.12,-0.52,-0.80,0.34,-0.21,0.16,0.71,0.26,-0.76,-0.04,-1.82,-0.17,0.55,-0.99,0.16,2.99,-0.33,-0.61,-0.33,-0.48,-1.12,0.74,-0.76,-0.51,0.35,0.36,0.14,-0.15,-0.75,0.39,0.04,-1.10,1.91,0.26,0.35
district;-0.27896,-0.63,-0.50,0.31,0.36,-0.54,0.40,0.44,0.62,-1.39,-1.08,-1.90,0.28,-1.39,-0.42,0.16,0.78,0.49,0.27,0.70,0.49,-0.74,-0.27,1.19,-1.07,-1.73,-0.30,0.23,-1.31,-1.01,2.94,-1.14,0.40,-0.81,1.21,0.05,0.75,0.36,0.53,0.61,-1.29,0.93,-0.18,-0.86,-1.35,0.11,-0.65,-0.96,0.85,0.79
development;0.73598,0.42,-0.41,0.92,-0.17,0.07,-0.42,-1.41,0.86,0.09,0.59,0.14,-0.24,-0.29,-0.69,0.55,0.84,0.68,0.60,0.47,0.54,-0.11,-0.80,-0.71,0.39,-0.72,0.34,-0.72,-0.64,0.56,4.02,0.06,-0.16,-1.02,-0.11,0.10,-0.40,0.64,4.4513e-03,0.19,-1.05,-0.62,-0.02,-0.58,0.22,0.10,-0.11,0.54,0.35,0.47
council;-0.38584,0.23,-1.10,-0.20,0.47,-0.49,0.29,-0.11,0.34,-1.61,-0.18,-0.05,-0.04,-0.19,-0.47,0.75,0.61,-0.20,0.54,0.03,0.71,-0.05,0.26,-0.08,-1.10,-1.72,0.52,-0.13,-1.60,0.46,2.86,0.02,-1.47,-1.10,-1.037e-03,-0.56,0.80,-0.27,-0.14,0.16,-0.63,-0.25,-0.16,-0.48,-0.63,1.15,-1.41,0.69,0.01,0.17
county;-0.89812,0.14,-0.52,1.04,-0.07,0.40,-0.79,1.16,0.87,-1.66,-0.87,-0.89,1.36,-2.43,-0.40,-0.24,0.22,0.41,-0.03,-5.8618e-03,0.20,-0.67,0.18,0.61,-0.40,-1.87,-0.03,-0.03,-0.65,-1.62,2.67,-1.01,0.39,-1.38,1.19,-0.16,4.6133e-03,-0.14,1.35,0.35,-1.07,0.79,-0.23,-0.56,-1.84,0.42,-0.81,-0.98,0.61,0.27
france;0.66571,0.29,-1.04,-0.66,-0.78,-1.3007e-04,-0.17,0.37,-0.18,-0.40,0.98,-0.60,-0.94,-0.69,0.56,-0.38,0.02,-1.24,-0.73,-0.52,-0.06,0.16,-0.37,0.42,-0.63,-1.63,-0.25,0.04,-0.39,0.98,2.62,0.83,-0.77,0.39,-0.57,-1.02,-0.26,0.98,-0.51,-0.42,1.39,-0.02,2.22,-1.70,0.02,0.69,-0.57,-0.17,0.42,-0.53
point;-0.1592,0.57,0.11,-4.894e-03,0.92,-0.07,-0.41,0.23,-0.60,-0.14,-0.23,-0.38,-0.35,-0.53,-0.33,0.15,0.44,-0.94,-1.36,-0.43,-0.25,-0.17,-0.23,-0.08,0.68,-1.61,0.32,0.46,0.65,-0.40,3.32,-0.14,0.11,-0.43,0.45,-0.95,-0.15,0.14,0.02,-0.24,0.07,-0.16,0.19,0.30,-0.40,-0.30,1.00,0.08,0.46,8.3356e-05
spokesman;0.53567,-0.46,0.33,1.53,0.66,-0.83,-0.70,0.08,0.10,-1.81,0.40,0.24,-1.23,-0.70,0.43,0.40,0.42,-0.27,0.01,-0.64,-0.56,0.35,-0.62,-0.75,0.06,-1.52,0.25,1.1704e-03,-1.01,0.01,2.24,-0.72,-0.40,-0.09,-0.37,-0.67,1.12,-0.97,0.53,1.63,0.54,1.26,-0.30,-1.12,0.98,-0.59,-1.60,1.52,0.13,1.36
member;-0.57994,0.67,-0.27,-0.10,0.88,0.44,-0.45,0.14,-0.18,-1.18,0.55,0.13,-0.31,0.87,-0.28,-0.47,0.47,0.35,0.01,0.25,-0.02,-0.12,0.56,0.52,-0.91,-1.67,-0.15,-0.95,-1.84,0.42,2.71,-0.26,-0.88,-0.52,1.1383e-03,-0.50,0.26,-0.21,0.22,0.07,-0.60,-0.12,-0.37,-0.39,-0.14,-3.4066e-03,-1.26,-0.19,-0.02,0.27
plan; 1.3774,-0.16,0.37,-0.45,-0.25,0.37,-0.79,-0.69,-0.11,-0.15,-0.81,0.01,-0.15,0.04,0.19,0.49,0.56,-0.28,0.56,-0.12,0.57,-0.56,-0.97,-0.77,-0.33,-1.60,0.17,-0.16,-0.03,-0.03,3.46,0.09,-1.60,0.02,-0.06,-0.51,0.16,-0.20,-0.06,-0.53,-0.81,-0.46,0.14,-0.43,-0.39,0.18,-0.18,1.06,-0.06,0.77
financial;0.67226,4.9257e-03,0.30,0.33,-0.11,-0.43,-0.06,-0.35,-0.13,-0.31,-0.36,0.95,-1.31,4.5216e-03,0.12,0.30,-0.11,-0.55,0.39,0.02,1.34,-0.01,-0.62,-0.77,-0.63,-1.27,-0.36,-0.41,-0.28,0.94,3.69,0.62,1.30,-0.56,-0.76,-0.27,-1.13,-0.53,1.09,-1.01,-0.73,-0.39,0.82,0.49,-0.14,9.5985e-03,-0.33,1.22,0.71,0.52
campaign;0.18605,-0.52,0.16,-0.20,-0.69,0.38,-0.85,-0.48,0.20,-0.49,-1.60,-0.78,-0.61,-0.52,0.16,-0.95,0.04,-0.21,-0.09,0.21,0.20,-0.26,0.33,-0.57,-0.27,-2.35,-0.21,-0.15,0.15,0.36,2.64,0.66,-1.49,-0.76,-1.07,0.04,-0.76,0.24,-1.04,-0.97,-0.31,0.20,-1.07,-0.43,0.09,-0.36,-0.60,0.07,0.08,0.46
music;-0.92448,0.59,-0.99,-0.04,-0.38,0.03,-1.14,-0.30,-0.33,2.04,0.72,0.25,0.06,0.60,0.19,-0.33,9.8585e-03,0.28,-0.02,-0.53,1.23,1.07,-0.08,0.99,0.49,-0.46,-1.78,-0.50,-0.67,-0.91,3.66,-0.58,0.72,-0.47,-0.35,0.04,0.27,-0.20,-0.12,0.10,0.59,0.27,-0.92,-0.63,-0.13,0.50,0.15,-0.86,-1.35,0.28
israeli;0.0024655,0.35,0.64,-0.79,0.47,0.51,-0.59,0.86,-1.07,-1.00,-0.33,-1.66,-0.48,0.79,-0.34,0.82,0.99,-0.80,-0.13,0.91,1.00,1.19,-0.57,-0.28,-0.29,-1.70,-0.14,0.02,0.72,0.71,2.85,-0.55,-0.91,0.18,0.20,0.65,0.78,-1.27,-0.94,1.08,-0.01,-0.12,0.31,-1.05,1.31,-1.13,-0.84,1.85,-0.39,-0.43
russia;0.32097,1.01,0.50,0.42,-0.01,0.42,0.78,1.20,-0.82,-0.12,0.72,-0.68,-0.16,0.89,0.43,0.24,0.04,-0.23,0.35,0.69,0.47,-0.80,-0.11,-0.33,0.35,-2.53,0.37,0.05,0.54,0.13,2.73,0.45,-0.12,-0.10,-1.21,-0.57,-0.76,1.28,-0.95,5.3543e-03,0.20,-0.31,2.17,-1.72,0.11,0.62,-0.87,0.93,-0.75,-0.49
rights;-0.62781,0.09,-0.57,0.54,0.30,0.54,-0.02,-0.51,0.95,-0.01,0.21,-0.09,-0.13,-0.13,0.75,-0.35,0.28,-0.68,0.82,-0.03,6.098e-03,0.86,-0.43,-0.31,-0.34,-1.90,0.05,-1.09,-0.38,0.14,2.94,0.02,-0.99,-1.00,-1.41,-0.54,0.06,-0.92,-0.80,0.14,-0.23,-3.0341e-04,0.75,0.55,-0.68,-0.24,-1.61,0.10,-0.52,-0.30
information;0.63591,0.28,1.10,0.90,0.58,-0.66,-0.58,-0.55,1.00,-0.22,-0.02,0.59,0.02,-0.33,0.27,0.09,-0.62,-0.62,0.87,-0.15,0.97,0.36,0.65,0.15,0.22,-1.41,-0.65,-0.72,0.25,-0.23,3.39,-0.58,-0.34,-1.74,-0.01,0.50,-0.25,0.06,0.08,0.39,1.07,0.08,0.54,0.53,0.09,-0.25,-0.15,1.51,0.81,0.11
economy;-0.12027,-0.72,0.87,-0.63,0.17,-0.35,-0.65,-0.72,-0.22,0.13,0.42,-0.21,-0.31,0.47,0.31,0.64,0.22,-0.18,0.80,6.9265e-03,0.36,-0.74,-0.89,-0.66,1.07,-1.30,2.8634e-03,0.36,0.52,1.74,3.71,0.70,0.92,-0.17,-0.83,-0.42,-1.42,0.57,0.58,-0.85,-1.73,0.04,0.49,-1.01,0.08,0.46,1.7585e-03,0.62,1.18,0.08
press;-0.47559,0.59,-3.6768e-03,0.59,-0.20,-0.78,-0.92,-0.17,7.9159e-03,-0.88,-0.61,-9.4559e-03,-0.62,-0.17,0.78,0.12,-0.45,-0.84,0.18,-0.07,0.93,0.67,0.91,0.22,0.23,-1.65,-0.37,0.27,-0.68,-0.01,2.60,-0.30,-0.31,-0.88,-1.07,-0.13,-0.11,-0.22,-0.02,0.40,0.86,0.85,-0.18,-0.78,0.49,0.19,-0.56,0.85,0.31,-0.07
agency;0.39196,-0.29,0.63,0.56,-0.27,-0.68,-0.68,-0.19,1.30,-1.17,0.77,0.06,-0.26,0.55,0.69,0.24,-0.46,0.37,0.44,0.71,0.44,0.42,0.32,-0.24,-0.29,-2.16,-0.17,0.33,-0.85,0.14,3.07,-0.44,-0.11,-0.77,-1.00,0.24,0.21,-0.43,0.64,0.34,0.12,0.39,0.92,-0.66,-0.34,-0.53,-0.94,2.19,0.22,0.49
main;0.66426,0.71,0.17,0.50,0.20,-0.05,-0.15,-0.26,-0.01,-0.52,-0.34,-0.74,-0.51,0.17,-0.90,0.07,0.40,0.43,-0.22,-0.15,0.52,-0.55,-0.67,0.78,-0.31,-1.22,-0.15,0.27,-0.35,0.29,3.71,-0.26,0.10,-0.33,0.14,0.32,0.04,-0.09,-0.50,0.65,0.12,0.09,-0.53,-0.35,-0.08,0.19,-0.29,-0.32,0.42,-0.70
committee;-0.28394,0.09,-0.65,0.44,0.10,-0.04,-0.06,-0.21,0.49,-1.97,-0.82,-0.02,-0.17,0.48,0.22,-0.37,0.33,0.02,0.77,-0.44,0.70,-0.56,0.57,-0.79,-0.37,-1.90,0.20,-0.37,-2.18,0.03,2.76,-0.20,-1.50,-1.03,-0.69,-0.46,0.35,0.56,0.24,0.01,-1.05,-0.18,-0.41,0.23,-0.16,0.14,-0.83,0.94,-5.927e-03,0.54
building;0.96946,0.51,0.40,-0.44,0.52,-0.43,-0.88,-0.72,-0.32,-0.59,-0.61,-0.57,-0.57,0.05,-0.57,0.48,0.10,0.80,0.07,-0.25,1.28,0.16,-1.64,-0.73,-0.40,-1.07,-0.05,0.42,0.29,0.03,3.35,-0.95,0.16,-0.88,-0.07,0.64,0.67,0.43,0.41,0.43,-0.38,-1.02,0.14,0.04,-0.07,0.53,-0.80,-0.73,-0.02,-0.29
conference;-0.21697,0.94,-0.88,0.97,0.25,-1.19,-0.81,-0.19,-0.20,-1.09,-0.54,-0.86,-0.76,0.52,0.39,0.09,0.15,-0.42,-0.35,0.32,0.31,0.02,0.38,-0.13,-0.32,-1.21,0.47,0.04,-1.48,-4.7138e-03,2.91,0.81,-1.09,-1.09,-0.44,-0.60,0.18,0.49,-0.32,0.09,-0.91,-0.51,-0.53,-0.33,0.47,1.03,-0.21,1.21,-0.07,0.16
club;-0.60524,0.97,-1.34,0.24,-0.48,-0.64,-1.47,0.61,-0.93,0.01,0.57,0.19,-0.87,-0.49,0.45,-0.29,0.62,1.09,-1.32,0.14,-0.04,0.17,-0.22,1.35,-1.19,-1.21,0.17,0.28,-0.71,-0.42,2.79,0.87,-0.12,0.15,0.35,0.39,0.19,0.39,0.38,-1.35,0.48,-0.93,-0.46,0.24,-0.27,0.20,-0.52,0.02,0.59,-0.52
stock;-0.0743,-0.77,0.49,0.73,0.75,-0.78,-0.63,-0.54,-0.43,0.68,0.07,0.36,-0.60,-0.34,0.42,0.73,-1.11,-0.39,-0.97,-0.85,2.05,-0.39,0.11,-0.23,-0.97,-1.08,-0.16,0.18,0.36,0.30,3.20,0.03,1.13,0.67,0.45,-1.63,-1.22,-0.29,0.64,-0.74,-0.43,-0.33,0.45,0.57,2.9191e-03,0.10,0.31,0.49,0.82,-0.16
america;-0.13124,0.46,-0.10,0.18,0.07,-0.40,-1.14,-0.52,0.20,0.22,0.19,0.21,-0.14,0.02,0.35,-0.27,-0.14,0.14,-0.23,-4.5941e-03,-0.14,-0.10,-0.23,0.44,-0.03,-1.77,-0.97,-0.33,0.29,-0.21,2.93,0.47,-0.06,-0.42,-1.02,-1.10,-1.14,-0.39,-0.46,-0.63,-0.38,-0.50,0.92,-0.40,-0.19,0.94,-0.59,-0.33,-0.54,0.41
television;-0.049215,0.30,0.44,0.78,-0.38,0.11,-1.21,-0.42,-0.07,0.29,0.06,-0.18,-0.29,1.36,0.64,-2.1719e-03,-0.76,0.83,-0.63,0.23,1.25,1.37,0.62,0.95,-0.05,-1.45,-0.96,0.40,-0.23,0.02,2.97,0.46,0.33,-0.82,-0.93,0.51,0.13,-0.53,-0.99,-0.41,0.79,1.09,-0.85,-0.71,-0.86,-0.19,-1.05,0.23,-0.27,0.60
industry;-0.52915,-0.67,0.01,0.97,-0.37,-7.0348e-03,-1.07,-0.90,0.77,0.40,0.38,0.28,-0.06,0.50,0.35,0.33,0.30,0.59,0.54,-0.97,1.51,-0.41,-0.76,-0.37,0.02,-1.47,-0.83,-0.35,-0.02,0.72,3.52,-0.18,0.67,-0.05,-0.66,-0.29,-0.97,0.49,0.53,-0.08,-0.85,0.16,0.30,-0.01,0.69,0.23,-0.89,0.53,0.20,0.27
order;0.59594,0.02,-0.37,-0.43,0.90,-0.10,0.34,0.34,0.11,-0.46,0.40,1.02,-0.07,-0.12,0.20,0.22,-0.32,-0.89,0.06,-0.78,0.55,-0.72,-0.32,-0.09,-0.49,-1.45,-0.19,-1.15,0.46,0.13,3.36,0.09,-1.22,-0.45,0.22,0.21,0.50,-0.40,-0.24,0.15,0.06,-0.34,0.22,0.25,-0.39,0.48,-0.17,-0.37,0.18,-0.27
young;-0.3874,0.79,8.999e-03,-1.05,0.84,0.48,-1.20,-0.04,-0.77,0.22,0.14,0.30,0.05,0.38,0.35,-0.61,0.57,0.37,-0.38,-0.05,-0.69,1.09,0.29,0.72,0.45,-1.76,-0.36,-0.99,-0.32,-0.34,2.79,0.59,0.14,-0.47,0.40,0.34,-0.43,0.04,-6.3478e-03,-0.71,-0.40,0.36,0.19,-0.01,1.33,-0.63,-0.39,-1.03,-0.14,0.29
palestinian;0.082193,0.41,0.80,-1.10,0.82,0.20,-0.16,0.71,-0.32,-0.59,-0.48,-1.72,-0.64,0.65,-0.48,0.75,1.05,-0.76,1.21,1.07,0.46,1.35,-0.16,-0.01,-0.48,-1.37,0.14,-0.04,0.49,0.70,3.24,1.6429e-03,-1.13,0.18,0.24,0.68,0.56,-1.41,-0.70,1.07,-0.76,-0.29,-0.23,-0.65,0.85,-1.18,-1.07,1.34,-0.15,-1.03
russian;0.19318,0.88,0.40,-0.15,0.03,0.06,-0.02,1.30,-1.37,-0.44,0.99,-0.57,0.29,1.77,-0.03,-0.71,-0.42,0.36,-0.19,0.36,0.51,-0.32,-0.60,-0.24,-0.07,-2.53,-0.51,-0.09,0.22,0.48,2.73,-0.30,-0.37,0.04,-0.54,0.29,-0.59,0.66,-0.62,0.38,0.57,0.04,1.87,-1.40,0.52,-0.33,-0.74,1.21,-0.64,-0.71
prices;-0.69194,-0.52,0.83,-0.33,0.17,-0.84,-0.56,-0.73,0.03,1.02,0.32,-0.12,0.08,-0.43,0.92,1.36,-0.36,-0.91,-0.40,-1.53,1.81,-1.12,0.20,-0.46,-0.39,-1.06,0.05,0.61,1.25,1.42,3.70,0.32,1.41,0.60,0.54,-1.33,-0.88,0.04,0.33,-0.32,-0.94,0.42,0.76,-0.22,0.90,0.02,0.04,0.37,0.90,0.01
nations;0.16043,0.19,-0.47,-0.29,0.18,-0.22,0.23,-0.25,0.63,-0.72,0.36,-0.06,-0.38,0.25,0.57,0.34,1.38,-0.52,0.36,-0.02,-0.19,0.12,0.58,-0.12,-0.52,-1.28,0.64,-0.32,-0.78,0.56,3.38,0.85,-0.78,-0.51,-0.25,-0.40,-0.05,-0.12,-1.42,-0.22,-0.85,-0.33,1.76,-1.29,-0.09,1.10,-1.06,1.05,-0.79,-0.63
human;0.61854,0.11,-0.46,0.31,1.03,0.95,0.87,-1.03,1.63,0.29,0.80,-0.05,0.02,0.40,0.54,-0.33,0.53,-0.35,0.29,0.09,-0.92,0.69,0.39,-0.64,0.77,-1.72,-0.48,-0.50,-0.22,0.09,3.20,-0.31,-0.71,-1.67,-1.35,0.15,0.05,-0.16,-0.02,0.39,-0.55,-0.07,0.63,0.51,0.70,0.27,-0.53,0.06,-0.21,-0.52
india;-0.20356,-0.87,-0.19,0.73,0.18,0.14,0.48,-0.21,0.72,-0.36,0.13,-0.11,-0.18,-0.64,-0.18,0.83,0.48,0.76,-0.50,0.80,1.21,0.34,0.22,0.31,1.20,-1.84,0.14,-0.99,-1.14,0.32,3.21,0.42,0.19,0.80,0.38,-0.12,-0.26,0.05,-1.15,0.16,-0.82,0.20,0.08,-0.60,-0.03,1.37,-0.51,0.29,0.23,-1.38
defense;-0.19556,-0.76,0.15,0.69,0.74,-0.36,-0.09,0.02,-0.72,-0.91,-0.27,0.19,-0.70,0.32,-0.36,-0.33,0.22,-0.34,-0.29,0.23,-0.54,0.26,-0.37,-1.60,-0.43,-2.30,0.61,-0.27,-0.29,-0.12,2.81,-0.21,-0.54,-0.69,0.02,0.82,0.03,0.65,-0.19,-0.03,0.18,0.65,0.64,-0.11,0.31,0.20,-0.54,1.74,-0.32,0.70
southern;0.51257,-0.04,-0.69,0.51,-0.67,-0.38,-0.72,0.49,0.25,-0.98,-0.02,-1.47,0.75,-0.68,-0.99,0.21,0.23,0.61,-0.88,0.91,-0.62,0.02,-0.07,0.77,-0.31,-1.88,-0.15,0.39,0.04,-0.03,3.44,-0.29,-0.04,0.11,0.47,-0.09,-1.12,-0.43,-0.09,0.80,-0.78,0.78,0.59,-1.04,-0.05,0.64,-0.38,-0.25,-0.47,-0.63
fire;0.50905,-0.36,0.41,-0.44,-0.01,-0.12,-0.43,0.52,-0.14,-0.83,-0.32,-0.71,-0.43,-0.13,-0.27,0.01,0.09,0.55,-1.39,-0.58,0.25,0.74,-0.18,-0.46,-0.09,-1.49,0.26,0.55,1.10,-0.06,3.08,-0.57,-0.91,-0.52,0.05,0.85,0.75,-1.22,0.60,0.76,-0.02,-0.07,-0.10,-0.50,0.92,0.21,-0.29,-0.03,0.05,-0.43
nuclear;0.58108,0.66,1.07,0.34,-0.34,0.20,0.78,0.11,0.77,0.43,0.18,-0.20,-0.53,0.55,-0.09,1.17,0.83,1.28,-0.19,0.41,1.12,-0.31,0.22,-1.03,0.28,-2.77,0.80,0.24,0.64,0.41,2.40,-1.15,-1.37,-0.90,0.20,-0.29,0.10,0.29,-0.94,0.26,-0.17,-1.18,0.99,-0.50,1.04,0.81,-0.20,1.94,-1.28,-0.49
media;-0.0090994,-0.06,0.49,0.88,-0.39,-0.47,-0.75,-0.69,-0.03,0.41,0.05,1.7307e-03,-0.51,0.32,0.18,0.06,-0.25,0.15,-0.19,-0.26,0.94,0.83,0.26,0.35,-0.13,-1.71,-0.75,-0.17,-0.57,0.33,3.07,-0.09,0.27,-1.25,-1.43,-0.15,-0.59,-0.57,-0.61,-0.29,1.06,0.49,-0.26,0.46,0.10,-0.21,-0.92,0.80,0.07,-1.9464e-03
college;-1.2283,1.41,-0.68,-1.16,-1.9627e-03,-0.52,-1.59,-0.25,-0.21,-0.56,-0.14,0.15,0.18,-1.31,-0.53,0.20,-0.47,1.04,-0.50,0.77,0.39,0.70,-0.32,0.60,-0.13,-1.84,-0.09,-1.12,-1.48,-0.86,2.59,0.66,-0.05,-1.57,1.11,0.13,-0.26,0.57,1.33,-0.24,-0.68,-0.43,-0.86,0.95,-0.67,0.36,0.61,-0.26,-0.37,0.32
working;0.25792,-0.14,-0.03,-0.60,0.11,-0.05,-1.22,-0.03,-0.02,-0.37,0.28,0.12,-0.31,0.65,0.28,-0.20,0.30,0.75,0.47,-0.41,0.68,0.92,0.07,0.39,0.24,-1.40,-0.14,-0.69,-0.03,4.1205e-03,3.40,0.03,-0.58,-0.72,0.03,0.33,-0.27,0.51,0.34,0.06,-0.36,-0.26,0.42,8.1181e-03,0.19,-0.38,-0.35,0.03,-0.50,0.54
community;0.14774,0.62,-0.81,-0.16,0.44,-0.12,-0.87,-0.06,0.48,-0.23,-0.01,-0.70,0.77,-0.82,-0.69,0.07,0.98,0.58,0.77,0.30,5.9052e-03,0.58,-1.01,1.11,-0.13,-1.21,-0.09,-0.70,-0.54,-0.12,3.43,0.12,-0.35,-1.36,-0.32,-0.25,-0.52,-0.90,0.28,0.22,-0.47,-0.51,-0.32,0.07,-0.10,0.47,-0.83,0.02,-0.36,0.14
level;-0.385,1.03,0.18,-0.45,0.28,-0.81,0.71,-0.15,0.11,-0.09,0.41,-0.51,-0.23,-0.16,0.06,0.24,0.29,0.25,-0.64,-0.46,0.07,-0.19,0.33,-0.15,-0.37,-1.06,0.44,0.28,-0.43,0.86,3.93,0.58,0.42,-1.14,0.53,0.11,0.13,0.30,0.10,-0.60,-0.47,-0.56,0.44,0.35,-0.40,-0.35,0.89,0.66,0.23,-0.15
germany;0.31098,0.05,0.27,-0.79,0.15,0.68,-0.04,0.23,-0.90,-0.71,1.16,-1.12,-1.26,-0.32,0.96,0.25,0.57,-0.55,-0.73,0.57,0.67,-1.13,-0.74,0.74,-0.20,-2.08,0.08,-0.29,-0.64,0.17,2.43,0.79,0.40,-0.01,-1.18,-0.91,-0.01,1.42,-0.32,-0.20,0.76,-0.55,1.56,-1.40,0.51,0.40,-0.07,0.29,-0.34,-0.28
change;0.042454,0.12,-0.06,-0.21,0.04,0.17,-0.05,-0.51,-0.24,0.03,0.13,0.34,-0.43,0.13,0.44,0.93,0.31,-0.66,0.30,-1.02,-0.17,-0.31,6.472e-03,-0.20,0.67,-1.45,-0.64,-0.03,0.52,0.53,3.61,0.43,-0.85,-1.06,-0.37,-0.67,0.04,-0.04,-0.25,-0.20,-0.77,0.01,-0.29,0.12,-0.17,0.30,0.31,0.54,0.32,0.65
church;0.92124,1.07,-1.27,-1.60,1.38,0.22,-0.86,-0.05,-0.65,-0.55,-0.27,-0.19,-0.02,-1.08,-0.13,0.02,-0.65,-0.57,0.38,0.46,-0.31,0.01,-1.34,0.58,-0.41,-1.26,0.09,-0.05,-0.60,-0.22,2.77,-0.65,-0.07,-0.97,-0.62,-0.42,0.86,-0.65,0.30,0.82,0.01,-0.79,-0.63,0.63,-0.09,1.38,-1.17,-1.00,-0.57,-0.86
german;0.29942,-0.09,-1.2405e-03,-1.31,0.29,0.67,-0.65,0.10,-1.49,-0.98,1.48,-0.50,-0.73,0.47,0.39,-0.60,0.19,-0.01,-0.98,0.14,0.65,-0.77,-0.98,0.62,-0.15,-2.08,-0.94,-0.49,-0.80,0.80,2.65,-0.26,0.17,0.42,-0.88,-0.39,-0.15,0.58,-0.14,-0.08,1.21,-0.34,1.31,-1.21,1.01,-0.53,-0.07,0.86,0.01,-0.23
london;0.032886,0.99,-0.69,-0.58,0.05,-0.35,-0.96,-0.04,-0.23,-0.31,-0.08,7.5121e-03,-0.69,-0.19,0.04,0.74,0.07,-0.13,-1.59,0.33,2.55,0.87,-0.15,0.85,-0.68,-1.39,0.13,0.10,-0.74,0.67,2.56,-0.19,0.76,-0.48,0.39,-0.62,0.63,-0.19,-0.09,-0.22,0.61,-0.21,0.25,-0.39,0.47,0.57,-0.55,-0.62,0.60,-0.30
research;0.71258,0.64,0.05,0.30,-0.05,0.37,-0.98,-1.41,1.27,-0.01,0.55,0.23,-0.01,-9.0835e-03,-0.60,0.11,0.45,0.42,-0.52,0.54,0.98,0.26,0.22,-0.82,0.24,-1.28,-0.36,-1.08,-1.44,0.04,3.10,-0.60,0.19,-1.95,-0.55,-0.47,-0.70,0.95,1.34,0.15,-0.04,-0.85,0.42,0.45,0.95,-0.19,0.52,1.16,-0.17,0.89
services;0.64004,0.27,0.26,0.15,-0.31,-0.08,-1.15,-0.51,1.20,-0.83,0.48,0.40,0.05,-0.41,-0.72,0.14,-1.10,0.26,0.60,-0.01,1.66,0.12,-0.77,0.49,-0.60,-1.01,0.49,-1.01,-0.14,0.41,3.76,0.76,0.42,-0.63,-0.05,0.14,0.09,-0.11,0.33,0.54,0.64,-0.31,0.04,0.43,-0.19,-0.19,-0.60,0.46,0.37,0.87
europe;0.63431,0.19,-0.19,-0.34,-0.24,-0.24,-0.66,-0.45,0.04,-0.31,0.87,-0.11,-0.64,0.33,0.61,0.66,0.46,-0.46,-0.51,0.05,0.53,-0.51,-0.31,0.58,6.9408e-03,-1.42,-0.39,-0.16,0.03,0.94,3.24,0.69,0.41,-0.10,-1.00,-0.78,-0.89,0.38,-0.94,-0.04,-2.2959e-03,-0.28,1.42,-0.71,0.22,0.93,-0.37,0.16,-0.66,-0.52
policy;-0.45759,0.09,-0.53,-0.72,-0.07,0.03,0.02,-1.05,-0.20,-0.57,-0.48,0.39,-0.41,0.34,-0.30,0.20,0.34,-0.62,0.96,0.08,0.29,-0.17,-0.48,-0.69,0.09,-2.18,0.54,-0.09,-0.22,0.77,3.32,0.03,-0.75,-1.01,-0.87,-0.52,-0.41,0.12,-0.61,-0.08,-0.62,-0.15,0.46,0.30,0.10,-0.22,-0.02,1.45,0.27,0.91
northern;0.59766,-0.11,-0.48,0.48,-0.47,0.04,-0.60,0.62,0.06,-1.26,0.20,-1.35,0.60,-0.85,-0.97,0.69,0.79,0.25,-0.99,0.92,-0.35,-0.22,-0.01,0.92,-0.30,-1.73,0.08,0.38,-0.15,0.11,3.38,-0.28,-0.11,0.13,0.53,-0.03,-0.84,-0.55,-0.28,0.75,-0.60,0.89,0.34,-1.15,-0.31,0.60,-0.42,-0.19,-0.23,-1.02
board;0.076017,-0.60,-0.18,0.11,0.27,-0.12,-0.73,-0.11,0.44,-1.31,0.15,0.61,-0.27,0.38,-0.09,0.16,-0.40,0.51,-0.41,-1.09,0.98,0.08,-0.06,-0.38,-0.62,-1.75,0.13,-0.02,-1.51,-0.13,2.79,-0.04,-0.70,-0.32,0.12,-0.57,0.50,-0.06,0.91,-0.24,-0.42,-0.13,-0.02,0.49,-0.86,0.43,-0.65,0.59,0.29,0.32
football;-1.8209,0.70,-1.14,0.34,-0.42,-0.92,-1.39,0.28,-0.78,-0.52,0.89,0.35,-0.80,-0.34,1.08,-0.08,0.63,1.14,-1.62,0.41,-1.12,-0.16,0.17,0.99,-0.81,-1.77,0.07,0.13,-0.59,-0.45,2.54,1.06,-0.27,-0.75,0.24,1.02,0.11,0.17,-0.23,-1.15,-0.10,-0.25,-0.65,0.32,-0.58,0.88,-0.13,0.96,-0.07,-0.59
ministry;0.15408,-0.17,-0.15,0.09,0.77,-0.67,-0.19,-0.20,-0.09,-1.38,0.87,-0.07,0.13,-0.05,0.62,-0.04,-0.46,-0.13,0.47,0.58,0.61,0.07,-0.08,-0.63,0.22,-1.51,0.48,-0.28,-0.93,0.59,3.31,-0.41,-0.33,-0.20,-0.47,0.48,0.73,-0.09,0.16,1.36,-0.02,0.27,0.77,-0.99,0.89,-0.61,-1.24,1.75,0.72,-0.14
book;-0.0076543,0.93,-0.73,-0.55,0.76,0.35,-1.13,-1.16,0.34,0.29,-0.87,0.91,-0.47,-0.22,1.47,-0.81,-0.17,-0.51,-0.28,0.23,0.71,0.23,0.49,0.35,0.76,-1.43,-1.74,-0.28,-0.10,-0.36,2.55,-1.05,-0.04,-0.25,-0.63,0.02,-0.18,0.20,-0.26,-0.41,0.83,-0.14,-0.28,0.09,-0.17,0.52,0.31,-0.08,-0.27,-8.8736e-03
students;-0.55206,0.79,0.29,-1.68,0.19,-0.33,-0.39,-0.38,-0.59,-0.10,-0.25,-1.01,0.78,-0.74,0.14,-0.55,-0.29,0.89,0.19,-0.32,0.53,1.12,0.20,0.81,0.25,-1.24,0.30,-1.36,-1.36,-0.78,3.51,1.03,-0.35,-1.43,0.61,0.44,0.30,0.07,0.45,0.31,-0.59,-0.46,0.34,0.93,0.45,-0.39,0.38,0.07,-0.43,-0.03
iran;-0.18997,0.11,0.85,-0.03,0.10,-0.44,1.24,0.49,0.58,0.83,0.02,-0.85,-0.39,-0.18,-0.05,0.95,0.59,0.25,0.65,0.87,0.82,-4.1283e-03,0.91,-0.03,0.19,-3.03,0.58,0.23,0.03,0.17,2.45,-0.35,-0.68,-0.43,0.12,-0.46,-0.29,0.33,-1.64,0.23,-0.01,5.7172e-03,0.94,-1.27,0.53,0.80,-0.70,1.70,-0.64,-0.97
agreement;0.66063,0.36,-0.62,0.68,0.18,0.42,-0.57,-8.3287e-03,-0.14,-0.15,0.38,0.26,-0.81,-0.04,0.48,0.81,0.16,-0.67,0.92,-0.01,0.84,0.02,-0.45,-0.73,-0.75,-1.27,0.83,0.27,0.22,-0.05,3.35,-0.17,-1.80,0.36,0.09,-1.28,0.05,-0.37,-0.47,0.05,-0.45,-0.88,0.36,-0.60,-1.05,0.03,-0.49,1.84,-0.81,-0.23
special;0.16163,0.78,-0.50,0.17,0.64,-0.28,-0.07,-0.57,0.75,-0.82,-0.19,0.35,0.20,0.39,0.53,-0.25,-0.12,0.18,0.03,-0.65,0.73,0.12,0.24,-0.22,-0.73,-1.19,-0.48,-0.26,-0.27,-0.11,3.16,0.40,-0.96,-0.63,0.47,1.00,0.53,-0.10,-0.69,-0.03,0.03,0.71,-0.12,-0.54,-0.33,-0.23,-0.08,0.45,-0.44,0.68
food;0.47222,-0.44,-0.51,-0.26,0.44,-0.25,-0.99,-0.90,1.87,0.03,0.14,0.07,1.05,-0.32,1.07,0.44,9.9484e-03,0.15,0.51,-0.77,0.92,0.01,0.58,0.23,-0.34,-0.88,-0.31,0.12,1.14,0.60,3.43,0.63,-0.13,0.28,-0.16,0.77,-0.49,0.46,0.91,0.29,0.06,0.59,0.53,-0.06,1.29,0.92,-0.80,0.34,0.33,0.25
race;-0.65295,0.41,-0.18,1.18,-0.05,0.84,-0.75,0.02,-0.13,-0.86,-0.34,-1.36,-1.04,-0.33,1.02,-0.37,0.32,0.21,-1.71,-1.50,-0.51,-0.14,-0.21,0.62,1.00,-1.56,-0.23,-0.23,-0.02,0.62,2.30,0.68,-1.33,-0.11,0.14,-1.26,-0.24,1.03,-0.91,-0.69,-0.57,-0.54,-0.22,0.62,-0.34,-0.41,0.49,-0.67,0.91,-0.17
korea;-0.30067,0.32,0.48,0.75,-0.59,-0.52,0.48,0.50,0.16,-0.03,0.27,-0.22,-0.19,-0.11,0.01,0.87,0.16,0.29,-0.09,1.21,0.59,-0.17,0.43,-0.84,0.55,-2.44,0.89,0.04,-0.33,-0.44,3.19,-0.05,0.08,0.69,-0.15,-0.77,-0.01,0.12,-1.61,-0.87,-0.53,-0.98,1.21,-1.18,1.51,-0.05,-0.20,1.20,-0.70,-0.45
future;0.63042,0.75,0.11,0.05,0.22,-0.07,-0.48,-3.7095e-03,-0.10,-0.05,0.10,0.77,-0.70,0.14,0.61,0.71,0.63,-0.24,0.36,-0.31,0.07,-0.35,-0.54,-0.20,0.30,-1.41,-0.57,-0.58,0.33,0.56,3.09,0.51,-0.52,-0.99,0.07,-0.17,-0.38,4.608e-03,-0.66,-0.60,-0.78,-0.31,0.09,-0.13,-0.17,0.27,-0.13,0.54,-0.11,0.35
island; 1.4738,0.09,-0.87,0.95,-0.17,0.10,-1.16,0.28,0.15,-0.88,-0.11,-0.23,1.91,-0.12,-0.41,0.53,0.58,0.12,-1.45,0.55,0.16,0.20,-0.72,0.37,0.61,-1.49,0.49,0.34,-0.01,-0.42,2.69,-0.68,-0.45,-8.3561e-03,0.23,-0.52,-0.62,-1.16,-0.27,-0.15,-0.87,0.75,0.83,-0.77,-0.78,0.18,-0.19,-1.35,0.11,-0.44
democratic;-0.42149,-0.28,0.66,0.45,-0.04,1.00,-0.36,-0.15,-0.94,-1.03,-1.17,-1.17,-0.13,0.16,-0.91,-0.33,0.74,-0.58,0.99,-0.35,-0.88,-0.26,0.38,-0.15,0.05,-1.90,-0.13,-0.59,-0.78,0.92,2.74,0.30,-1.76,-1.04,-1.07,-0.99,-1.00,0.30,-0.54,-0.65,-0.81,0.54,-1.17,-0.28,-0.71,0.31,-1.41,-0.23,0.02,0.50
senior;-0.85691,0.73,0.15,0.39,0.92,-0.54,-0.70,0.18,-0.45,-1.53,-0.15,0.12,-0.97,0.04,-0.09,0.09,0.33,0.48,-0.13,0.28,0.29,0.58,0.25,0.16,-0.85,-1.88,0.33,-0.85,-1.72,0.40,2.53,-0.10,3.7014e-03,-0.69,0.77,-0.01,-0.39,-0.20,0.34,-0.17,-0.47,0.33,-0.20,-0.15,0.74,-0.54,-0.57,1.11,-0.13,0.65
congress;-0.42487,-1.25,0.17,-0.47,0.17,-0.21,0.16,-0.05,-0.09,-0.89,-0.96,0.05,0.26,0.48,0.16,-0.04,-0.19,-0.41,0.78,-0.47,0.81,-0.80,0.41,-0.66,0.37,-2.43,0.05,-0.66,-1.06,0.37,2.65,-0.01,-1.75,-0.69,-0.81,-0.80,-0.04,0.18,-0.08,-0.66,-1.37,0.07,-0.50,0.21,-1.07,1.14,-0.55,0.12,0.07,-0.06
australia;-0.66844,-0.02,-0.36,0.84,-0.21,0.20,-0.79,0.14,1.08,-0.64,0.46,0.14,-0.18,-0.61,0.50,0.60,1.01,-0.53,-1.43,0.28,0.31,0.38,0.05,0.38,0.54,-1.13,1.03,-0.66,-0.82,0.45,2.77,0.19,0.80,0.09,0.14,-0.37,0.33,-0.05,-1.07,-1.30,-0.03,-0.38,1.07,-0.74,0.31,1.39,-0.72,-0.29,0.11,-0.52
land;0.74371,-0.01,0.08,0.28,0.48,0.09,-1.04,-0.55,0.04,-0.92,-0.09,0.20,0.87,-1.23,-0.07,0.84,1.21,0.14,-0.67,0.11,0.31,-0.23,-0.53,-0.56,0.28,-0.98,-0.02,-0.15,1.31,0.25,3.33,-0.83,-0.55,0.12,-0.06,0.09,-0.68,-0.38,-0.12,0.23,-0.46,-0.24,0.55,0.38,-0.98,-0.58,-0.83,-0.84,0.21,-0.74
action;0.24196,-0.74,-0.51,-0.08,-0.26,0.45,0.72,-0.21,0.04,0.18,-0.32,0.05,-0.59,0.22,0.12,-0.29,0.64,-0.22,-0.57,-0.45,0.25,0.09,-0.11,-0.16,-0.23,-1.84,-0.10,-0.35,2.4535e-03,0.03,3.35,0.15,-1.05,-0.72,-0.57,-0.05,0.47,-0.99,-0.80,-0.62,-0.22,0.14,-0.03,-0.33,0.20,-2.3766e-03,0.01,0.55,0.15,0.70
higher;-0.64024,0.22,0.79,-0.71,0.59,-0.21,0.24,-0.63,0.03,0.50,0.65,-0.49,0.64,-0.72,-0.11,0.80,-0.33,-0.39,-0.61,-0.99,0.78,-0.66,0.10,-0.47,-0.23,-1.17,0.21,-0.16,-0.14,0.90,3.94,0.74,1.05,-0.21,0.75,-1.16,-0.44,0.09,0.58,-0.44,-0.84,-0.07,0.68,0.48,-0.01,-0.49,0.58,0.39,0.48,0.04
field;-0.49284,0.37,0.15,0.70,0.77,-0.48,-1.22,-0.02,0.63,-0.49,0.35,-0.29,-0.89,0.17,-0.49,-0.36,1.03,0.12,-1.73,-0.61,-0.30,-0.19,0.17,-0.62,-0.03,-1.05,0.19,-0.16,0.35,-0.40,2.91,0.04,-0.40,-1.06,0.13,0.60,-0.22,1.25,0.54,0.74,0.01,-0.10,-0.78,0.69,-0.39,-0.18,0.65,0.10,-0.77,-0.02
elections;-0.13445,-0.65,0.41,0.34,-0.28,0.20,0.26,0.65,-0.83,-0.70,-0.69,-1.49,-0.53,0.21,0.53,0.50,0.40,-1.13,0.41,-0.14,0.42,-0.24,0.93,0.06,-0.12,-1.42,-0.34,-0.39,-0.42,1.42,2.96,0.54,-2.28,-1.19,-0.44,-0.59,0.20,0.17,-0.61,-0.55,-1.40,0.10,-0.99,-0.58,-1.49,0.50,-1.23,0.23,1.15,-0.63
san;0.77545,0.62,-0.27,1.08,-0.40,-1.40,-1.84,0.08,-0.31,0.51,-0.28,-0.14,0.09,-0.20,0.14,-1.52,-0.57,-0.15,-0.84,0.28,-0.88,-0.33,-0.69,0.19,-0.71,-1.03,0.86,-0.12,-0.23,-1.05,2.76,-0.45,-0.39,-0.89,-0.20,-0.57,-0.19,0.25,1.29,0.42,-0.50,0.24,0.15,0.03,-0.46,0.26,-0.40,-1.37,0.44,0.66
executive;0.23636,-0.09,-0.24,1.14,0.66,-0.21,-0.88,-0.67,0.45,-1.20,0.32,1.40,-1.52,0.18,0.52,0.37,0.03,0.30,0.39,-0.72,0.51,0.15,-0.41,-0.49,-0.98,-1.45,-0.01,-0.35,-1.67,0.64,2.30,-0.10,-0.02,-0.26,-0.45,-0.87,-0.01,2.061e-03,0.71,-0.20,-0.32,0.76,-0.71,-0.06,-0.39,0.04,-1.16,0.16,-0.42,1.65
river;0.73109,1.02,-0.26,-0.33,-1.48,-0.37,-1.28,0.71,1.13,-0.90,-0.12,0.72,0.72,-1.02,-1.61,-0.23,1.27,-0.06,-0.68,0.26,-0.21,-1.03,0.77,1.5299e-04,0.62,-1.38,-0.19,1.30,-0.30,-1.47,2.96,-0.56,0.33,0.38,1.8625e-03,-0.28,-0.87,-0.79,1.38,0.79,-0.71,-0.28,0.05,-0.97,-1.14,-0.62,0.26,-1.44,0.40,-1.37
park;0.34111,1.68,-0.27,0.91,-0.39,-1.06,-1.72,-0.60,0.60,-0.79,-1.02,-0.30,0.09,-1.37,-0.29,0.60,1.24,0.78,-1.27,0.15,0.01,-0.10,-1.09,-0.03,0.22,-1.02,0.38,0.51,-0.55,-1.16,2.47,-0.34,0.25,-0.68,0.36,0.03,0.73,-0.08,0.01,-0.28,-0.56,-0.60,-0.41,0.26,0.44,0.01,-0.46,-1.59,0.39,0.02
commission;0.099351,-0.53,-0.71,0.47,0.07,-0.25,-0.16,-0.43,0.78,-1.57,0.02,0.33,-0.29,0.03,0.56,-0.17,0.26,-0.46,0.43,-0.75,0.83,-0.29,0.07,-0.87,-0.51,-1.72,0.40,-0.10,-1.64,0.25,2.72,-0.45,-1.43,-1.19,-0.76,-0.63,0.46,-0.11,0.48,0.12,-0.71,-0.12,0.46,-0.14,-0.80,0.22,-1.04,1.12,0.58,0.06
california;-0.094576,0.12,-0.09,0.46,-0.99,-0.04,-1.81,-0.20,0.69,0.05,-0.51,-0.73,0.97,-0.42,0.14,-0.55,-0.29,0.57,-0.33,-0.47,-0.23,-0.24,-0.56,0.20,-0.60,-1.94,-0.08,-0.07,-0.26,-0.59,2.59,-0.84,-0.78,-1.21,0.34,-0.89,-0.80,0.03,1.36,-0.41,-1.22,0.33,0.38,0.07,-0.54,0.52,-0.08,-0.81,-0.19,0.84
education;-0.9266,0.69,-0.59,-1.05,-0.16,0.26,-0.37,-1.44,0.40,-0.30,0.03,-0.18,0.42,-0.89,-0.56,-0.27,0.04,0.62,1.26,0.76,0.55,0.49,-0.60,0.04,0.21,-1.43,0.31,-1.43,-1.13,0.26,3.64,0.71,-0.51,-1.32,0.01,0.35,-0.16,0.89,0.73,0.24,-0.63,-0.30,0.09,0.32,-0.51,0.11,-0.16,0.60,0.51,0.83
energy;0.068807,0.36,1.01,0.72,0.33,-0.11,0.05,-0.62,0.69,1.10,0.88,0.61,0.06,0.52,-0.60,0.58,0.86,0.73,-0.27,-1.14,1.23,-0.38,0.16,-1.20,0.08,-1.14,0.34,0.16,0.46,1.29,3.21,0.25,-0.19,-0.86,-0.43,-0.71,-1.06,0.37,1.22,0.49,-0.11,0.31,-0.07,-0.56,-0.21,0.75,-0.53,0.86,0.02,0.49
africa;0.22664,-0.21,-0.86,0.45,-0.16,-0.28,-0.36,-0.68,1.12,-0.48,0.40,0.06,-0.38,-0.94,0.43,0.21,1.11,-0.36,-0.59,0.37,-0.67,0.61,0.50,0.30,0.58,-1.02,0.54,-0.60,-0.76,0.84,3.16,0.73,-0.20,0.14,-0.06,-0.33,-0.75,0.18,-0.91,-0.40,-0.59,0.24,0.99,-0.93,0.18,1.69,-0.43,-0.24,0.06,-0.97
red;-0.12878,0.87,-0.60,0.12,0.58,-0.03,-1.04,-0.52,-0.29,-0.72,0.21,0.17,0.19,0.36,0.03,-0.27,-0.19,-0.10,-1.00,-0.93,-1.02,-0.69,0.57,-0.45,-1.21,-1.19,-0.32,1.49,0.54,-1.00,2.84,0.26,-0.49,0.34,-0.12,0.59,-0.03,-0.47,0.05,-0.20,0.13,0.26,-0.19,-0.75,1.03,-0.05,-0.32,-0.77,-0.16,-0.73
association;-1.4406,0.58,-1.29,0.64,-0.38,-0.41,-1.23,-0.34,0.76,-0.92,1.05,0.35,0.33,0.11,0.07,-0.26,0.02,0.64,-0.19,-0.48,0.18,-0.15,-0.41,0.33,-0.87,-1.45,-0.43,-1.03,-1.72,0.06,2.88,0.21,-0.36,-0.52,-0.45,-0.30,0.03,-0.49,0.66,0.18,-0.45,-0.30,0.16,0.60,0.55,0.04,-0.99,0.61,-0.18,0.11
exchange;-0.33034,0.03,0.09,0.55,1.12,-0.83,0.12,-0.20,-0.55,0.35,0.21,0.10,-0.01,0.08,0.26,0.46,-0.65,-0.66,-0.33,0.04,2.13,0.04,-0.03,-0.61,-0.79,-0.98,1.25,-0.25,0.14,0.12,3.60,-0.15,0.39,0.29,-0.05,-0.75,-0.53,-0.39,0.09,0.01,-0.05,-0.25,0.82,0.05,0.12,-0.65,0.18,0.94,0.22,-0.26
eu;0.2805,0.09,-0.40,-0.43,-0.21,0.39,0.11,-0.58,0.16,-0.90,0.68,0.07,-0.20,0.86,1.05,0.59,0.93,-1.13,0.91,-0.73,0.29,-0.65,-0.54,0.12,9.7543e-03,-1.47,0.99,0.43,-0.99,0.68,3.00,0.89,-1.12,0.37,-1.13,-1.07,-0.09,0.11,-0.52,-0.36,-0.11,0.10,1.68,-1.20,-0.35,0.67,-0.30,1.71,0.29,-0.41
george;-0.3811,1.14,0.22,-0.69,0.06,0.51,-1.21,-0.07,-1.11,-0.84,-1.09,1.26,-0.31,-0.63,-0.07,0.22,0.22,-0.33,-0.59,-0.26,0.44,0.23,-0.32,-1.00,0.57,-2.05,0.13,-0.52,-0.30,0.22,1.42,-0.47,-0.44,-0.71,0.60,-0.25,0.26,0.14,-0.49,-0.39,0.03,0.87,-0.41,-1.01,0.28,0.85,-0.89,-0.59,-0.24,0.77
pakistan;0.093731,-0.76,0.33,0.56,0.34,-0.43,0.47,0.26,1.17,-0.54,-0.16,-0.50,-0.86,-0.67,-0.38,1.12,0.62,0.06,-0.12,1.30,0.24,1.02,0.92,0.41,0.29,-2.08,0.45,-0.44,-0.37,0.48,2.86,0.56,-0.08,0.57,0.97,0.45,-0.16,-0.43,-1.57,0.19,-0.52,0.66,-0.13,-0.52,0.37,1.01,-0.70,1.25,-0.10,-1.34
post;-0.25084,0.29,0.17,-0.31,-0.14,-0.79,-0.98,-0.13,0.06,-1.10,-0.65,-0.26,-0.53,0.12,0.30,-0.02,-0.69,-0.77,-0.03,0.57,0.37,0.13,-0.14,0.01,-0.14,-1.72,-0.16,0.10,-0.15,0.77,2.97,-0.45,-0.14,-0.37,-0.59,0.38,-3.9065e-03,0.35,0.31,-0.28,0.46,0.52,-0.30,0.07,-0.50,0.24,-0.02,0.07,0.20,0.14
social;0.010132,0.86,-0.37,-0.48,6.7286e-03,1.01,0.05,-1.31,-0.46,-0.06,0.11,-0.15,-0.18,0.09,-0.23,-0.47,0.20,-0.19,1.29,-0.05,2.6792e-03,0.24,-0.69,0.26,0.51,-1.01,-0.51,-1.05,-0.29,1.14,3.69,0.83,-0.31,-1.60,-1.49,0.24,-0.89,0.10,0.47,0.07,-0.30,-0.31,0.05,0.69,-0.21,-0.17,-0.25,0.15,0.89,0.14
parliament;-0.33948,-0.44,-0.05,-0.86,0.48,0.60,0.56,0.94,-1.02,-1.08,-0.69,-1.03,0.38,0.77,-0.18,0.41,0.13,-0.73,0.53,-0.30,1.14,0.01,0.30,0.26,-0.20,-1.89,0.47,-0.06,-1.38,1.34,2.65,-0.15,-1.83,0.03,-0.03,-0.48,1.11,-0.01,-0.23,-0.21,-0.27,0.60,-0.61,-0.46,-1.32,1.36,-1.53,0.17,0.71,-0.94
private;0.92055,0.48,0.14,-0.24,0.21,-0.16,-1.24,-0.16,0.17,-0.22,-0.21,0.34,0.32,0.10,-0.19,-0.06,-0.21,0.60,0.49,-0.16,1.40,0.59,-0.64,0.24,-0.77,-1.28,0.16,-0.54,-0.51,0.30,3.28,0.23,0.24,-0.55,-0.08,0.08,-0.25,-0.08,0.23,-0.15,0.13,-0.37,0.35,0.80,-0.25,-0.72,-1.29,0.11,0.12,0.42
lower;-0.22492,-0.15,0.33,-0.75,0.31,0.21,0.50,-0.02,-0.05,-0.17,0.37,-0.70,0.71,-0.30,-0.64,1.17,-0.38,-0.80,-0.39,-0.96,0.55,-1.18,-2.944e-03,-0.17,-0.53,-1.30,0.14,0.55,-0.65,0.57,3.91,0.22,1.28,0.38,0.78,-1.26,-0.16,0.06,0.90,-0.52,-1.05,0.15,0.43,0.50,-0.50,0.08,0.59,-0.53,0.37,-0.39
dollar;-0.12318,0.33,0.85,-0.31,-0.03,-1.11,0.10,-0.49,-0.26,1.09,-0.62,0.13,0.08,0.02,0.79,0.54,0.02,-0.39,-1.02,0.10,1.33,-0.53,-0.73,-1.51,-0.64,-1.49,0.65,0.46,9.5991e-03,0.91,3.11,0.12,1.21,1.48,-0.15,-0.91,-0.62,-0.35,4.4067e-03,-2.16,-0.52,0.13,1.22,0.02,0.19,-0.50,0.28,0.62,0.27,-0.15
radio;-0.18365,0.31,0.69,0.42,-1.05,-0.44,-1.40,0.03,-0.43,0.37,0.67,-0.32,0.31,0.62,-0.33,0.12,-0.58,0.92,-0.88,0.33,0.68,1.13,0.50,1.19,0.30,-1.11,-0.45,0.10,-0.09,7.234e-03,3.10,-0.11,-0.19,-0.66,-0.81,-0.04,0.82,-1.07,-0.52,0.36,1.68,0.75,-1.07,-0.72,-0.64,0.03,-1.04,0.60,-0.34,0.72
david;-0.33246,0.96,0.12,-0.20,0.29,-0.42,-1.24,0.20,-0.53,-0.35,-0.44,0.57,-1.30,0.03,0.77,3.5736e-03,1.14,-1.20,-0.48,-0.19,-0.39,0.42,-0.19,-0.01,-0.34,-0.94,0.72,-0.56,-0.85,0.29,2.07,-1.43,0.18,-0.74,0.01,-0.31,0.11,0.27,0.85,-0.63,1.01,0.99,-0.29,-0.61,0.55,-0.28,-0.10,-0.72,-0.65,1.34
african;-0.40253,-0.16,-1.27,0.37,0.47,-0.09,-0.67,-0.98,0.20,-0.54,0.72,-0.19,0.48,-0.36,0.10,-0.02,0.82,-0.06,-0.42,-0.38,-0.66,1.11,0.05,0.13,0.01,-0.79,0.40,-0.76,-1.24,0.98,3.14,0.42,-0.84,0.06,0.15,-0.22,-0.93,-0.58,-0.64,-0.37,-0.50,0.36,0.98,-0.76,0.68,0.87,-0.57,0.02,0.01,-1.20
king;0.50451,0.68,-0.59,-0.02,0.60,-0.13,-0.08,0.47,-0.61,-0.31,-0.07,1.49,-0.03,-0.98,0.68,0.81,-0.51,-0.31,-0.55,0.66,0.19,-0.13,-0.11,-0.30,0.41,-2.22,-1.07,-1.07,-0.34,0.33,1.99,-0.04,-0.64,0.71,0.49,0.16,0.34,-0.25,-0.85,0.16,0.40,1.16,-1.01,-0.21,-0.15,0.78,-0.91,-1.61,-0.64,-0.51
britain;0.032743,0.06,-0.09,-0.26,0.07,0.66,-0.53,-0.01,0.40,-0.91,0.36,0.07,-0.46,-0.34,0.75,0.83,0.53,-0.88,-0.85,0.06,1.00,0.24,-0.27,0.30,0.04,-1.89,0.38,-0.65,-0.48,1.18,2.49,0.23,0.16,0.31,-0.19,-0.73,-0.03,-0.03,-1.21,-0.86,0.58,2.8534e-03,1.19,-0.68,0.54,0.90,-0.90,-0.02,-0.25,-0.63
title;-1.2383,0.99,-0.73,1.07,0.25,0.08,0.17,0.59,-0.43,0.02,0.28,0.42,-1.42,-0.41,1.11,-0.41,-0.05,-0.23,-1.25,0.05,-0.69,-0.58,0.04,0.29,0.03,-1.72,-1.19,-0.83,-0.54,-0.16,2.53,0.08,-0.41,0.30,0.21,0.04,0.54,0.89,-1.01,-1.59,0.48,-0.55,-0.24,-0.02,-0.91,0.14,0.14,-0.97,0.20,-0.36
middle;-0.15502,1.04,-0.22,-0.89,0.49,-0.19,-0.81,4.1689e-03,-0.23,-0.57,-0.49,-0.28,-0.07,0.35,-0.51,0.54,0.52,-0.28,0.06,0.65,-0.16,-0.05,-0.08,0.61,0.31,-1.49,0.14,0.12,0.21,0.32,3.33,-0.16,0.36,-0.04,0.52,-0.11,-0.74,0.15,-0.26,0.17,-0.93,0.04,0.12,-0.16,0.16,0.42,0.59,-0.19,-0.67,-0.24
global;0.19864,0.33,0.60,0.42,-0.06,-0.35,-0.06,-1.34,1.39,0.31,0.38,0.34,-1.04,0.76,-4.8788e-04,0.61,0.62,-0.08,-0.37,-0.25,0.88,-0.31,-0.56,-0.51,-0.04,-1.16,-0.20,-0.45,-0.01,1.60,3.35,0.60,0.49,-0.83,-1.19,-0.81,-1.13,-0.57,-0.03,-0.63,-0.74,-0.52,0.43,-0.28,0.64,0.62,0.23,0.70,0.03,0.28
iraqi;0.22712,-0.33,1.13,-0.80,1.17,-0.74,0.32,0.58,0.40,-0.90,-0.12,-1.24,-0.31,0.46,-0.17,0.43,0.15,-0.06,0.54,0.53,0.32,0.99,0.82,-0.30,-0.83,-2.06,-0.59,-0.20,0.64,1.11,2.59,0.16,-1.07,-0.33,0.53,1.03,-0.08,-0.44,-1.07,0.61,-0.06,0.51,0.48,-0.76,0.45,-0.19,-1.20,1.34,-0.70,-0.74
english;-0.98541,0.56,-1.46,-0.99,-0.09,0.13,-1.09,-0.02,-1.33,-0.17,0.51,0.71,0.60,-0.52,0.04,-0.53,-0.04,0.17,-0.91,0.33,0.10,0.44,0.15,1.32,0.60,-1.29,-0.49,-0.69,-0.74,0.44,3.41,-0.85,0.34,-7.9804e-03,0.77,0.41,0.14,0.09,-0.45,-0.62,1.25,-0.04,0.11,0.13,-0.08,0.44,0.18,0.14,0.31,-0.47
violence;0.52628,-0.41,-0.08,-0.48,-0.21,0.55,0.94,-0.50,-0.12,0.33,-0.77,-1.41,-0.89,-1.03,1.07,0.12,0.23,-0.47,-0.09,0.28,-0.14,0.74,0.54,0.62,-0.28,-1.52,0.17,0.09,0.98,1.04,3.20,0.61,-0.67,-1.30,-0.66,0.18,-0.52,-2.19,-0.85,0.56,-1.30,0.81,-0.25,-0.44,0.88,0.13,-0.10,0.39,0.02,-0.62
border;0.38784,-0.36,-0.04,0.29,-0.44,-0.42,-0.32,0.39,0.52,-1.82,-0.22,-1.15,0.04,-0.56,-0.27,0.16,0.68,-0.21,-3.0347e-03,0.72,-0.09,-0.07,-0.15,0.67,-0.28,-2.01,0.95,0.57,0.87,-0.40,3.27,-0.46,-0.52,0.25,0.07,0.47,-1.02,-0.76,-0.97,0.99,-0.30,0.76,1.41,-0.86,-0.30,-0.83,0.39,0.41,-0.41,-1.14
crisis;0.99518,-0.03,-0.09,-0.41,-0.61,-0.10,0.34,0.17,-0.23,-0.01,-0.18,0.23,-0.90,0.25,1.01,0.39,7.7842e-03,-0.25,0.33,0.49,0.29,-6.7517e-03,-0.10,-0.44,0.20,-1.54,0.20,0.45,0.31,1.85,3.27,0.35,-0.18,-0.34,-1.08,-0.07,-1.18,-1.03,0.57,-0.74,-1.35,0.11,0.45,-0.90,0.22,0.77,0.12,1.00,0.29,-0.43
division;-0.51401,-0.42,-0.34,0.88,0.39,-0.62,-0.07,0.17,0.45,-1.58,0.69,-0.18,-1.47,-0.69,-0.86,-0.72,-0.30,0.59,-1.35,0.17,0.04,-0.95,0.05,0.21,-1.97,-1.41,-0.68,-0.56,-0.32,0.11,2.80,0.45,0.23,-0.59,0.49,0.43,-0.42,0.75,0.20,-0.63,0.19,-0.82,0.07,-0.55,-0.55,0.75,0.23,0.01,-0.08,0.36
hospital; 1.5825,0.57,-0.36,-0.76,-0.06,-0.40,-0.69,1.09,0.97,-0.93,0.34,-0.88,-9.3445e-03,-0.70,-0.40,0.54,-1.39,0.47,-0.22,1.11,-0.03,1.70,-0.40,-0.01,-0.51,-1.71,0.11,0.18,-0.80,-0.21,2.62,0.42,0.31,-0.68,0.59,0.73,1.53,0.18,2.21,0.52,-0.25,7.2179e-03,-0.11,0.17,0.69,0.02,-0.76,-0.60,0.30,0.39
kong;-0.2069,-0.08,-0.44,1.05,0.51,-1.23,0.11,-0.78,0.42,-0.08,0.49,0.21,0.46,0.27,0.38,0.63,-0.48,-0.33,-0.51,0.73,1.39,0.06,-0.51,-0.33,0.53,-1.43,0.48,-0.74,-1.20,0.10,3.24,0.85,0.89,0.49,-0.51,-0.89,0.27,-0.17,-0.70,-0.30,-1.14,-6.7018e-03,0.88,0.01,0.42,-0.60,-0.77,-0.92,1.25,-0.03
hong;-0.1976,0.13,-0.33,0.99,0.49,-1.32,0.16,-0.69,0.44,-0.10,0.41,0.28,0.55,0.20,0.30,0.66,-0.49,-0.34,-0.39,0.85,1.33,0.02,-0.27,-0.30,0.60,-1.46,0.38,-0.82,-1.21,0.03,3.20,0.85,0.87,0.62,-0.52,-0.93,0.16,-0.02,-0.73,-0.20,-1.13,-0.03,0.92,-0.01,0.49,-0.71,-0.81,-0.87,1.29,-8.9934e-03
technology;-0.25722,-0.09,1.13,0.95,-0.45,-0.55,-0.48,-1.64,0.59,0.75,0.74,0.26,-0.29,0.21,-0.86,0.87,-0.34,0.99,0.02,-0.25,1.41,2.5313e-03,-0.65,-0.35,0.56,-1.60,-0.19,-0.99,2.233e-03,0.04,3.25,-0.26,-0.09,-1.33,-0.03,-0.15,-0.85,1.08,0.20,-0.18,0.34,-0.32,0.26,0.48,0.65,0.50,0.80,0.58,-0.06,0.39
organization;0.0045919,0.04,-0.45,0.08,0.82,-0.29,-0.74,-0.73,1.14,-0.30,0.82,-0.03,-0.61,0.88,-0.26,-0.81,0.42,0.27,0.39,0.50,-0.38,-0.11,0.03,0.07,-1.09,-1.47,-0.07,-0.76,-0.80,0.07,3.18,0.24,-0.94,-1.03,-1.42,-0.36,-0.23,-0.22,0.12,0.37,-0.53,-1.01,-0.12,0.06,0.14,0.10,-1.36,0.78,-0.43,0.43
republican;-0.62964,-0.41,1.02,-0.20,0.18,1.18,-1.11,0.06,-0.98,-1.19,-2.01,-0.81,-0.08,0.24,-0.94,-0.62,0.56,-0.66,0.23,-0.73,-0.75,-0.54,0.35,-0.44,-0.28,-2.42,-0.15,-0.31,-0.45,0.63,2.03,-0.03,-1.17,-1.24,-0.32,-1.07,-1.00,0.28,-0.45,-0.97,-0.70,0.85,-1.52,0.23,-0.38,0.29,-1.24,-0.17,-0.31,1.27
texas;-1.1389,0.09,0.21,0.62,-0.14,-0.26,-1.56,0.28,0.41,-0.16,-0.97,-0.67,0.54,-0.31,-0.17,-0.62,-0.29,0.23,-0.41,0.01,-0.56,-0.18,-0.13,2.8572e-03,-0.64,-2.10,-0.07,-0.29,0.37,-0.87,2.26,-0.67,-0.44,-0.68,0.46,-0.70,-0.62,-0.02,1.03,-0.17,-1.12,0.41,-0.17,0.43,-0.51,0.79,-0.32,-0.35,-0.80,1.06
senate;-0.1219,-0.54,0.53,-1.3432e-03,0.20,0.95,-0.41,0.43,-0.62,-1.29,-1.87,-0.45,0.35,0.79,-0.05,-0.31,-0.43,-0.84,0.61,-0.97,0.26,-0.43,0.18,-0.80,-0.02,-2.38,0.39,-0.10,-0.77,0.63,2.15,-0.48,-1.72,-0.79,0.10,-1.06,-0.17,0.78,0.14,-1.05,-1.07,0.60,-0.46,0.29,-1.21,0.99,-0.53,0.18,-0.29,0.86
medical;0.58013,0.37,-0.31,-0.54,-0.50,0.19,-0.70,0.03,1.39,-0.43,0.44,-0.11,0.50,-0.46,-0.07,-0.02,-0.97,0.22,0.17,0.39,0.40,1.07,-0.51,-0.44,-0.29,-1.91,-0.61,-1.00,-0.81,-5.8407e-03,2.95,0.19,-0.04,-1.42,0.42,0.80,0.66,0.75,1.86,0.38,0.02,0.01,0.76,1.00,0.40,0.37,-0.14,1.05,-0.17,0.69
un;0.7481,0.17,-0.54,-0.35,-0.20,-1.30,0.86,-0.37,0.89,-0.68,0.06,-0.62,-0.58,-0.03,0.73,-0.42,0.83,-0.36,0.88,-0.02,-0.51,1.00,0.19,-0.52,-0.77,-0.99,0.34,0.52,-0.37,0.65,2.84,-0.61,-2.18,0.09,-0.27,-0.47,0.99,-0.85,-0.81,-0.03,0.08,-0.17,1.62,-2.27,0.10,-0.24,-0.78,1.22,-0.03,0.70
star;-0.21025,1.60,0.03,1.04,0.61,0.06,-0.93,-0.03,-0.18,0.73,0.65,0.75,-0.73,0.95,0.89,-0.10,0.11,0.30,-1.49,-0.03,-0.95,0.41,-0.23,0.40,-0.32,-1.53,-0.45,0.10,-0.41,-0.57,2.19,0.47,0.56,-0.16,0.43,0.40,-7.678e-03,-0.22,-0.33,-1.09,0.33,1.34,-0.34,-0.50,-0.25,-0.10,0.19,-0.48,-0.41,0.18
art;-0.63628,1.29,-1.27,-0.29,0.32,-0.63,-1.03,-1.48,-0.73,0.76,-0.01,0.18,0.11,0.02,0.42,-0.26,0.33,0.12,-0.30,0.02,1.24,0.39,-1.17,0.15,0.03,-1.01,-1.61,-0.53,-0.11,-0.85,2.54,-0.72,0.38,-1.46,-0.58,0.82,-0.19,0.92,0.15,0.25,0.84,0.07,0.72,-0.02,0.27,0.68,0.22,-0.71,-0.34,-0.03
presidential;0.085331,0.85,0.73,0.74,0.07,0.03,-0.53,0.27,-0.66,-1.00,-1.37,-0.96,0.12,0.45,0.32,-0.38,-0.38,-0.51,0.18,-0.55,-0.02,-0.07,0.39,-0.85,0.03,-1.98,-0.19,0.15,-0.43,1.05,2.05,0.21,-2.32,-1.25,-0.19,-0.17,-0.37,0.74,-0.94,-0.85,-0.58,0.67,-0.93,-0.30,-0.84,-0.29,-1.02,-0.12,0.72,-0.17
morning;0.12099,0.10,-0.18,0.20,0.34,-1.06,-1.16,0.64,-0.33,-0.79,-0.55,-1.09,-0.14,0.36,0.57,0.27,-1.37,-0.23,-1.21,-0.46,0.91,1.31,0.59,0.04,0.65,-1.07,0.33,1.01,0.27,0.15,3.15,0.45,-0.15,0.33,0.03,-0.40,0.41,-0.28,0.31,0.32,-0.44,0.36,-0.53,-0.38,0.63,-0.07,0.04,-0.20,0.41,0.25
cost;0.89,2.2248e-03,1.00,-0.55,-0.28,0.30,-0.15,-0.76,0.44,0.22,-0.45,-0.19,0.10,-0.89,1.07,0.10,0.15,0.59,-0.35,-0.87,0.78,-0.85,-0.74,-0.71,-0.26,-1.14,-0.04,-0.28,0.65,0.45,3.49,0.81,0.28,0.36,0.17,0.05,0.28,0.61,0.35,-0.47,-0.04,0.05,0.67,0.63,-0.63,-0.09,-0.19,0.71,-0.15,0.61
canada;-0.72491,0.40,-0.35,0.65,-0.27,0.60,-1.21,0.14,0.85,-0.74,1.02,-0.04,0.40,-0.11,0.14,0.32,0.38,-0.72,-1.00,-0.01,0.66,-0.30,-0.01,0.57,-0.26,-1.36,0.17,-0.54,-0.40,-0.14,2.37,0.60,0.07,-0.41,-0.30,-1.16,-0.15,-0.18,-0.07,-0.30,-0.07,-0.19,1.19,-1.11,-0.57,1.01,-0.81,-0.11,0.01,-0.03
daily;-0.0013649,0.68,-0.15,-0.27,-0.55,-0.95,-0.54,-0.07,0.48,-0.17,-0.26,-1.03,0.20,-0.37,0.91,-0.78,-1.13,0.03,-0.44,0.41,0.73,0.21,0.84,0.93,0.16,-1.23,-0.58,0.43,0.22,0.77,3.47,0.08,0.41,0.81,-1.36,-0.36,0.15,-0.18,0.51,1.18,1.12,0.30,-0.16,0.28,0.27,-0.37,-0.68,1.14,0.23,0.44
drug; 1.2961,-1.08,-0.18,-0.08,-0.69,0.70,0.16,-0.92,1.81,1.66,0.52,-0.16,-0.53,-0.49,0.90,-0.59,-0.78,-0.12,0.12,-0.11,-0.29,-0.15,0.30,0.51,-1.99,-2.50,0.25,-0.41,0.06,0.07,2.50,0.09,-0.54,-0.84,0.65,-0.10,-0.59,0.46,0.26,-0.38,-0.61,1.08,0.85,0.59,1.20,-0.33,-0.14,0.10,2.1264e-03,0.29
investment;0.79548,0.46,0.49,0.57,0.38,-0.47,-0.49,-1.10,0.04,0.42,-0.16,0.99,-0.48,-0.51,-0.26,0.46,1.00,0.01,0.30,0.08,1.76,-0.55,-0.56,-0.86,-0.61,-0.90,0.42,-0.58,-0.44,0.50,3.37,0.65,1.14,3.269e-03,-0.30,-1.01,-1.49,0.11,0.66,-0.52,-0.72,-0.45,0.79,-0.08,-0.06,-0.97,-0.60,0.87,0.69,0.97
michael;-0.39706,0.75,0.94,0.03,0.96,-6.6449e-03,-0.40,-0.19,0.13,-0.15,-0.26,0.60,-1.82,-0.09,1.08,0.12,0.89,-0.65,-0.61,-0.24,-0.21,0.41,-0.27,0.27,-0.13,-1.58,0.40,-0.62,-1.17,0.19,1.50,-0.46,0.88,-1.01,-0.16,0.12,0.83,0.34,0.40,-0.48,0.32,1.49,-0.45,-0.49,0.41,0.42,-0.25,-1.16,-0.59,1.24
civil;-0.31089,-0.39,-0.68,-0.23,-0.09,0.32,0.20,0.14,0.23,-1.08,-0.25,-0.31,-0.32,-0.56,0.17,-0.94,-0.30,0.08,0.20,0.06,0.16,0.62,-1.04,-0.64,-0.54,-1.92,-0.04,-1.25,-0.04,1.31,2.90,-0.57,-0.83,-0.88,-0.42,0.25,-0.49,-1.11,-0.08,0.33,-0.95,0.24,0.50,0.22,-0.73,0.14,-0.80,-0.22,-0.69,-0.35
indian;-0.50272,-0.86,-0.62,0.91,0.31,-0.03,-0.31,-0.25,0.30,-0.64,0.04,-0.03,0.70,0.11,-0.34,0.08,0.24,0.90,-0.72,0.34,0.79,0.68,-0.01,0.25,0.87,-1.75,-0.43,-1.11,-1.10,0.25,3.04,-0.42,-0.11,0.74,0.61,0.36,-0.71,-0.81,-0.66,0.43,-0.90,0.86,9.0063e-03,-0.08,0.15,0.45,-0.46,0.27,0.10,-1.38
los;-0.0097114,1.04,-0.15,0.95,-0.64,-1.09,-1.64,0.19,-0.67,0.84,-0.37,-0.71,-0.14,0.29,0.66,-1.28,-0.27,-0.20,-0.80,0.15,-0.62,0.37,-0.73,0.37,-1.30,-0.72,-0.24,0.12,0.64,-1.21,2.37,-0.68,0.01,-1.36,-0.36,-0.66,0.34,-0.71,1.13,0.20,-0.45,-0.18,1.03,-0.30,-0.38,-0.48,-0.70,-0.71,0.06,1.78
mark;-1.0946,1.02,0.30,-0.11,1.33,-0.35,-0.81,-0.57,0.17,-0.57,-0.58,-0.04,-1.19,-0.42,0.94,-0.33,0.62,-1.57,-1.23,-0.25,-0.22,-0.01,-0.76,-0.77,0.14,-0.99,0.43,-0.37,-0.35,0.29,2.17,-0.26,0.69,0.31,-0.12,-0.57,0.72,-0.21,-0.17,0.03,0.21,0.80,-0.31,-0.27,0.22,-0.05,0.35,-0.44,-1.07,0.59
trial;0.79479,-0.08,-0.63,0.53,0.44,0.34,0.76,0.83,0.27,0.53,-0.57,-0.74,-1.35,-0.16,1.63,-0.46,-0.46,-0.67,-0.41,0.09,0.75,0.80,0.28,0.24,-1.13,-2.42,0.12,-0.47,-0.33,0.23,1.85,-0.91,-1.28,-1.13,0.56,-0.43,0.61,0.14,-0.14,-0.50,-0.32,0.45,0.41,0.82,0.07,-0.41,1.8867e-03,-0.28,-0.09,-0.07
australian;-1.4047,-0.07,-0.44,0.70,0.01,0.24,-1.02,0.01,0.46,-0.82,0.65,0.15,-0.11,0.12,0.66,0.02,0.54,-0.02,-1.49,-0.11,0.51,0.76,-0.28,0.10,0.22,-1.14,0.41,-0.91,-1.20,0.88,2.61,-0.40,0.77,0.18,0.43,0.04,0.34,-0.42,-0.66,-1.67,0.18,6.367e-03,0.88,-0.50,0.50,0.26,-0.47,-0.08,0.23,-0.24
relations;-0.016521,0.95,-1.30,0.81,0.24,0.34,0.14,0.16,-0.25,-0.80,0.42,0.36,-0.79,0.35,-0.47,0.38,-0.48,-0.56,1.18,0.85,0.26,0.54,4.6891e-04,-0.43,0.17,-1.73,0.70,-0.04,0.28,0.81,3.09,0.62,-0.21,-0.89,-1.07,-0.68,-1.48,0.46,-0.73,0.36,-0.72,-0.56,0.49,-0.79,0.08,0.16,-0.31,0.87,-0.61,0.23
base;0.30335,0.60,0.91,0.19,1.06,-0.96,-0.52,0.11,0.02,-0.75,0.16,-0.86,0.21,0.39,-1.39,0.01,-0.03,0.39,-1.26,0.27,-0.49,-0.37,0.13,-0.25,-1.07,-1.31,0.60,0.64,1.14,0.17,3.04,-0.14,-0.32,-0.26,0.86,-0.15,-0.24,0.16,0.09,0.67,-3.5415e-03,0.02,0.24,-0.14,-0.44,-0.31,0.08,0.07,-0.48,0.57
tv;-0.13136,0.46,0.75,0.95,-0.38,-0.04,-0.93,-0.69,-0.10,0.51,-0.05,0.04,-0.21,1.32,0.79,0.33,-0.56,0.87,-0.65,0.38,0.93,1.07,0.70,1.39,0.03,-1.38,-1.02,0.32,0.12,-0.30,2.84,0.70,0.26,-0.22,-0.77,0.44,0.15,-0.84,-0.82,-0.72,0.89,1.13,-0.75,-0.43,-0.71,-0.08,-0.60,0.09,8.0094e-04,0.87
staff;0.19965,0.18,0.45,-0.38,0.42,-1.08,-0.81,0.37,-0.27,-2.06,-0.27,0.40,-0.23,-0.14,0.40,-0.43,-0.51,0.37,0.34,-0.67,0.25,0.49,0.30,-0.27,-0.51,-1.14,0.10,-0.59,-0.78,0.39,2.85,0.34,0.12,-0.94,-0.05,0.93,0.33,0.06,0.51,0.38,0.14,0.67,1.9749e-04,-0.10,0.34,-0.57,-0.74,0.72,-0.90,1.50
hope;0.3336,0.74,0.08,-0.22,0.52,-0.33,-0.54,0.81,0.02,0.37,-0.05,0.21,-0.38,-0.21,0.33,0.64,0.76,-0.48,0.33,-0.41,-0.05,0.50,-0.11,-0.48,0.97,-1.57,-0.40,-0.31,0.34,-0.42,2.88,1.13,-0.86,-0.57,-0.26,-0.59,-0.25,-0.08,0.09,-0.95,-0.52,-0.49,-0.12,-0.39,0.40,0.56,-0.17,0.06,-0.27,-0.06
operations; 1.1591,-1.19,0.07,0.58,-0.29,-0.51,-0.49,0.01,1.06,-1.00,0.52,0.27,-0.84,0.09,-0.73,-0.15,-0.09,0.48,-0.64,0.22,1.07,-0.26,-0.24,-0.62,-1.28,-1.16,-0.06,-0.58,0.83,0.38,3.44,-0.04,-0.28,-0.34,0.10,0.42,-0.40,-0.19,-0.05,0.66,-0.49,-0.23,0.44,-0.70,-0.09,-0.57,-0.17,0.59,-0.54,0.99
eastern;0.40081,0.19,-0.51,0.50,-0.12,-0.58,-0.46,0.43,-0.29,-1.38,0.11,-1.20,0.64,-0.53,-0.74,0.36,0.02,0.11,-0.97,1.06,-0.43,-0.53,-0.02,1.01,-0.29,-1.54,2.8917e-03,0.19,0.10,-0.21,3.35,-0.20,0.31,-0.12,0.09,-0.03,-1.16,-0.46,-0.09,0.84,-0.56,0.45,0.89,-0.86,-0.23,1.00,0.04,-0.11,-0.50,-0.93
legal;0.055052,-0.15,-0.78,0.52,2.8074e-03,0.72,0.31,0.09,0.44,-0.22,-0.51,0.34,-0.33,0.03,0.66,-0.22,0.15,-0.77,0.85,-0.47,0.60,0.39,-0.53,-0.25,-0.37,-2.10,9.9313e-03,-0.81,-0.18,0.62,3.08,-0.78,-0.71,-0.97,-0.29,-0.11,-0.38,-0.11,-0.17,-0.27,-0.12,0.12,0.75,1.67,-0.74,-0.43,-0.25,0.77,-0.17,0.05
asia;0.56332,0.35,-0.14,0.95,0.23,-1.01,-0.18,-0.93,0.79,-0.46,0.44,0.25,-0.33,0.24,0.35,0.73,0.03,-0.14,-0.65,0.71,0.66,-0.38,0.19,0.18,0.32,-1.07,-0.05,-0.36,-0.58,0.76,3.16,0.97,1.31,0.04,-0.77,-0.90,-1.41,-0.08,-0.90,-0.13,-1.11,-0.09,1.29,-0.80,0.60,0.74,-0.07,-0.04,-0.08,-0.08
budget;0.24548,-0.15,0.64,-0.72,-0.43,0.23,-0.06,-1.58,-0.10,-0.89,-1.61,-0.08,-0.25,0.58,1.22,0.13,0.13,-0.15,0.57,-0.21,0.85,-0.91,-0.26,-0.88,-0.27,-1.22,-0.16,0.51,-0.25,0.87,3.25,0.82,-0.30,0.23,-0.68,0.22,-0.03,0.10,0.11,-1.21,-1.03,0.62,0.18,-0.36,-1.42,0.53,0.10,1.44,0.22,1.13
management;0.4901,-0.06,-0.28,0.49,-0.31,-0.51,-0.62,-0.78,0.35,-0.46,0.34,1.10,-0.82,-0.55,-0.50,0.41,0.30,0.88,0.18,-0.25,0.74,0.17,-0.70,-0.66,-0.78,-0.96,0.06,-0.42,-0.69,0.44,3.51,0.08,0.15,-0.92,-0.25,0.09,-0.43,-0.10,1.33,-0.27,-0.11,-0.70,-0.03,0.81,-0.34,-0.38,-0.08,1.12,0.28,1.16
network;0.94202,0.32,1.33,1.26,-0.60,0.17,-0.98,-0.94,0.94,0.01,0.43,0.03,-0.61,0.96,-0.53,0.30,-0.59,0.88,-0.04,0.63,0.78,0.15,0.13,1.36,-0.41,-1.13,-0.06,-0.30,0.20,-0.11,3.41,0.40,0.31,-0.93,-0.92,0.27,-0.31,-0.38,-0.69,0.08,0.71,0.04,-0.61,0.39,-0.64,-0.16,-0.59,0.25,-0.18,0.58
mexico;0.41189,-0.09,-0.18,1.06,-0.53,-0.99,-0.55,0.32,0.13,0.56,0.41,-0.76,0.64,-0.18,0.78,-0.89,-0.49,-0.22,-0.13,0.18,-0.71,-0.76,-0.08,4.9022e-04,-0.52,-1.83,0.17,0.33,0.24,-0.56,2.61,-2.3889e-03,-0.54,-0.73,-0.46,-0.75,-1.29,0.26,0.28,0.02,-1.02,0.57,1.47,-1.24,-0.62,0.40,-0.41,-0.60,0.13,-0.07
space; 1.5873,1.04,0.98,0.21,0.76,-0.58,-0.61,-0.92,0.62,-0.48,0.43,0.21,-0.22,1.71,0.10,0.47,0.49,0.79,-1.02,-0.53,0.52,0.15,-0.81,-0.32,0.31,-0.70,-0.26,0.12,0.79,0.42,2.92,-0.12,-0.46,-0.80,-0.51,0.50,0.28,0.58,-0.06,0.45,0.42,-0.07,0.36,0.59,-0.89,0.11,0.32,-0.42,-0.90,0.41
justice;-0.37481,-0.60,-0.62,0.16,1.33,0.32,0.82,0.21,0.29,-0.44,-0.57,0.65,-1.00,0.26,0.28,-0.46,0.35,-1.34,0.80,-0.19,0.38,0.72,-0.05,-0.32,-0.10,-2.00,0.09,-0.96,-0.65,0.01,2.18,-0.79,-0.85,-1.27,-0.68,-0.49,0.31,-0.46,0.60,0.20,-0.47,0.66,0.24,0.19,-0.68,0.25,-1.08,-0.19,0.63,0.24
james;-0.5508,0.84,0.03,-0.30,0.53,0.18,-1.24,-0.03,-0.29,-0.77,-0.75,1.63,-0.70,-0.39,-0.20,0.01,0.31,-0.96,-0.95,-0.36,0.21,0.54,0.25,-0.52,-1.3856e-03,-1.32,0.18,-0.99,-0.63,0.27,1.56,-1.12,0.30,-0.91,0.80,-0.29,0.01,-0.34,0.36,-0.59,0.07,1.12,-0.35,-0.67,0.16,0.30,-0.17,-1.43,-0.25,1.00
fund; 1.0066,0.55,0.37,-0.26,0.53,-0.19,-0.60,-0.89,0.51,0.08,-0.62,0.79,0.06,-0.31,0.37,-0.22,0.88,-3.9159e-03,0.15,0.39,1.16,-0.47,-0.37,-1.10,-1.01,-1.12,0.13,-0.61,-1.10,0.23,3.01,0.65,0.10,-0.18,-0.91,-0.23,-0.79,-0.26,0.95,-1.25,-0.62,-0.38,0.20,0.21,-0.32,-0.92,-0.75,0.69,0.10,0.81
republic;-0.30841,0.20,-0.07,0.99,0.09,0.11,0.14,0.51,-0.71,-0.64,1.19,-0.76,0.27,0.08,0.36,0.05,-0.51,-0.25,0.36,1.06,-0.58,-0.47,-0.47,0.36,-0.18,-1.79,0.19,-0.55,-0.15,-0.05,2.82,0.17,-0.84,-0.06,-0.93,-0.03,-0.48,0.09,-0.74,-0.12,0.39,0.41,1.22,-1.88,-0.96,1.29,-0.73,-0.11,-0.61,-1.16
opening;-0.0072058,0.40,-0.73,0.69,-0.04,-0.22,-0.39,0.30,0.05,0.18,-0.75,-0.64,-0.92,0.61,0.36,-0.16,-4.7821e-03,-0.86,-0.88,-0.26,0.84,0.11,-0.26,-0.23,0.26,-0.96,0.46,0.27,-0.19,-0.37,3.46,0.46,0.11,0.33,-0.03,-0.13,0.81,0.83,-0.79,-0.23,-0.34,-0.08,-0.38,-0.25,-0.02,0.65,0.13,-0.25,0.09,-0.31
championship;-1.6398,0.67,-0.52,1.89,-0.62,-0.24,-0.66,0.72,-0.57,-0.73,0.47,-0.55,-2.12,-0.20,0.97,-0.10,0.67,0.54,-2.19,-0.59,-0.61,-0.58,0.28,0.53,-0.77,-1.05,-0.64,-0.54,-0.65,-0.41,2.15,0.99,-0.72,0.06,0.75,-0.17,0.15,0.78,-0.52,-1.64,-0.70,-1.32,-0.26,-0.06,-0.53,0.56,0.34,-0.42,0.07,-0.59
means;0.21355,0.23,-0.13,-0.28,0.50,0.12,0.37,-0.20,0.12,0.40,0.18,0.44,0.24,-0.38,0.05,0.38,0.68,0.02,0.30,-0.36,-0.25,-0.38,-0.03,0.24,0.45,-1.54,-0.40,-0.14,0.84,-0.04,3.49,0.18,-0.73,-0.16,-0.07,-0.17,2.1736e-04,-0.05,-0.20,-0.10,-0.03,-0.26,0.01,0.52,-0.12,-0.15,0.07,0.24,0.35,0.09
robert;-0.19995,0.38,0.36,-0.36,0.23,0.33,-0.97,-0.24,-0.70,-0.64,-0.86,0.90,-1.07,-0.59,0.34,-0.02,0.89,-0.54,-0.57,-0.44,0.42,0.38,0.04,-0.33,-0.28,-1.58,-0.31,-0.88,-0.76,0.50,1.30,-1.63,-0.41,-0.73,0.60,-0.16,-0.50,0.54,0.87,-0.43,0.61,1.48,-0.07,-1.10,0.11,0.71,-0.11,-0.62,-0.57,0.97
light;0.0062958,0.47,-0.07,-6.0334e-03,0.36,-0.22,0.47,-0.33,0.09,0.09,0.40,0.03,0.29,0.30,-0.78,0.32,-0.69,0.27,-1.51,-1.77,0.35,-0.11,0.40,-0.71,-0.06,-1.07,-0.67,1.02,1.01,0.29,3.05,-0.02,-0.10,-0.82,0.28,-0.16,0.20,-0.08,-0.46,0.05,0.33,0.23,0.05,-0.34,0.07,0.53,0.22,-0.95,-0.02,-0.05
majority;0.11937,-0.80,0.68,-0.08,0.74,1.36,-0.23,0.34,-0.50,-0.21,-0.42,-1.36,0.62,-0.25,-0.52,0.14,0.62,-0.51,0.37,-0.57,-0.48,-0.05,0.25,0.20,-0.23,-1.34,-0.56,-0.87,-0.65,0.69,3.13,0.09,-0.72,-0.01,0.09,-1.12,-0.16,0.06,-0.35,-0.31,-0.50,0.21,-0.14,0.54,-1.09,0.98,-1.67,0.12,-0.49,-0.22
battle; 1.0628,-0.28,-0.26,-0.07,-0.30,0.11,0.46,1.04,-0.44,-0.97,-0.97,-0.55,-0.73,-1.03,-0.53,-0.68,-0.26,-0.03,-1.62,0.22,-4.751e-03,-0.39,-0.03,-0.39,-0.20,-1.86,-0.91,-0.61,0.56,0.45,2.27,0.12,-0.91,-0.44,0.01,0.15,-0.88,-0.45,-0.55,-0.60,-0.15,-0.35,-0.29,-0.25,0.25,0.01,0.63,-0.85,-0.36,-0.24
class;-0.44985,0.97,0.06,-0.52,0.21,0.22,0.32,-0.39,-0.59,-0.51,0.01,0.41,-0.10,2.7075e-04,-0.36,-0.93,-0.33,1.35,-0.78,-0.65,-0.15,-0.41,-0.33,1.03,-0.37,-1.57,-0.40,-0.93,-0.04,0.42,2.68,0.50,-0.01,-0.26,1.30,-0.24,0.10,0.02,-0.46,-0.20,-0.08,-0.73,1.01,0.86,-0.25,0.18,0.22,-0.65,0.26,0.61
society;-0.32823,0.60,-1.43,-0.69,0.37,0.27,-0.20,-0.56,0.18,-0.37,0.74,0.42,0.58,0.27,-0.72,-0.06,0.44,0.32,-9.8668e-03,0.37,0.46,0.50,-0.37,0.22,0.13,-1.29,-1.37,-1.11,-0.61,0.62,2.81,-0.15,-0.19,-1.50,-1.24,-0.22,-0.65,-0.08,0.67,-0.02,-0.18,-1.02,0.47,0.58,0.26,0.86,-0.54,-0.32,0.03,-0.24
regional;0.14074,0.44,-0.64,1.01,-0.31,-0.42,0.01,-0.03,0.37,-0.95,0.37,-0.34,-0.40,0.36,-1.02,0.14,0.34,0.23,0.21,0.20,0.53,-0.52,-0.19,0.89,-1.07,-1.05,-0.01,-0.32,-0.85,0.62,3.41,0.98,0.16,-0.98,0.05,-0.35,-1.23,-0.27,-0.08,0.65,-0.73,0.27,0.35,-0.84,-0.46,0.88,-0.32,1.03,0.13,0.10
construction;0.80973,0.30,0.39,0.26,-0.64,0.11,-0.81,-0.55,-0.31,-0.27,0.01,-0.33,-0.30,-0.41,-0.25,0.21,0.13,0.68,0.13,-0.36,1.63,-0.74,-1.73,-1.29,-0.01,-0.73,0.21,-0.04,0.37,0.28,3.51,-0.97,0.26,-0.07,0.06,0.26,0.53,0.50,0.26,0.84,-0.77,-0.92,0.48,-0.25,0.03,-0.52,-0.63,-0.06,0.27,-0.28
airport; 1.5719,0.58,0.16,0.35,-0.36,-1.63,-0.62,0.11,0.34,-0.61,0.41,-0.57,-0.30,-0.56,-0.06,0.82,-0.71,0.95,-1.40,-0.02,0.89,0.94,-1.28,0.25,-0.31,-1.73,1.15,1.11,0.23,-0.37,1.92,0.75,-0.34,-0.71,0.42,-0.28,0.95,-0.29,-0.02,1.50,0.15,1.02,0.82,-0.30,-1.15,-0.13,-0.41,-0.29,0.56,-0.07
internet;0.57121,-0.23,1.50,0.82,-0.45,-0.61,-1.24,-1.35,0.92,1.10,-0.19,0.06,-0.17,0.28,0.43,-0.03,-0.94,-0.14,0.50,-0.14,0.94,0.11,-0.26,1.39,0.37,-1.57,-0.20,-0.80,0.37,-0.17,3.20,0.07,0.15,-0.86,-1.19,-0.32,-0.81,-0.31,-0.62,-0.25,1.03,0.04,-0.06,1.48,0.09,-0.18,0.02,-0.07,0.43,0.18
movement;-0.30695,-0.33,-0.41,-0.77,0.13,0.21,-0.14,-0.41,0.01,0.72,0.83,-0.92,-0.60,0.47,-1.37,-0.39,0.48,-0.52,0.26,0.11,-0.51,0.17,-0.21,0.18,-0.04,-1.10,-0.68,-0.69,-0.07,0.92,3.52,-0.50,-1.37,-0.42,-1.24,-0.47,-0.13,-0.66,-0.39,1.08,-0.18,-0.36,-1.08,-0.34,0.63,-0.28,-0.48,-0.63,-0.14,-0.84
angeles;-0.17063,0.82,-0.05,0.83,-0.28,-0.60,-1.62,2.1288e-03,-0.30,0.45,-0.49,-0.75,-0.39,0.49,0.72,-0.79,-0.50,-0.21,-0.91,0.22,-0.07,0.51,-0.84,0.40,-1.03,-1.25,0.14,8.7244e-04,0.11,-1.16,2.32,-0.20,0.32,-1.55,-0.34,-0.32,0.24,-0.25,1.02,0.04,-0.52,0.38,0.49,-0.01,-0.40,0.25,-0.51,-0.59,-0.20,1.30
data;0.53101,-0.55,1.76,0.44,0.22,-0.34,-0.77,-0.96,1.16,0.07,0.81,-0.05,0.06,1.5176e-03,0.09,0.36,-0.98,-0.83,0.15,-0.77,0.73,-0.64,0.46,8.8162e-03,0.51,-0.65,-0.74,-0.13,0.08,0.20,3.56,-0.82,0.57,-1.72,6.2356e-03,0.06,-0.23,0.03,0.26,-0.29,0.74,-0.45,0.19,0.48,-0.43,-0.25,1.27,1.58,0.65,-0.20
sea; 1.3549,0.96,-0.65,0.32,0.02,-0.39,-0.45,0.08,0.59,-1.05,0.25,0.74,1.28,0.52,-0.42,0.11,0.75,0.33,-2.30,0.03,-0.09,-0.07,0.92,-0.64,0.59,-1.09,0.26,0.94,0.96,0.09,3.03,-0.25,-0.09,0.48,-4.144e-03,0.05,-0.70,-0.85,-0.34,0.57,-0.34,-0.09,1.53,-0.42,-0.10,-0.06,-0.07,-0.54,-0.20,-0.97
florida;-0.52717,0.16,0.16,0.93,-0.65,-0.31,-1.91,0.46,0.56,-0.41,-0.89,-0.47,0.71,-0.03,0.07,-0.40,-0.39,-0.44,-0.79,-0.05,-0.70,-0.11,-0.10,-0.09,-0.40,-1.78,0.29,-0.08,0.32,-0.84,2.26,-0.05,-0.49,-1.15,0.38,-0.37,-0.53,0.01,1.11,-0.59,-1.10,0.49,0.17,0.61,-0.92,0.83,-0.30,-0.47,-0.14,0.83
islamic;-0.052249,-0.46,-0.23,-1.11,0.92,-0.53,0.46,-1.21,0.32,0.59,-0.05,-1.12,-0.63,0.48,-0.96,0.34,-0.02,-0.58,0.26,1.62,0.05,0.71,0.40,0.38,-1.20,-2.36,-0.44,-0.78,-0.65,0.51,2.96,-7.743e-03,-1.19,-0.12,-0.29,0.05,-0.36,-0.83,-1.21,1.15,-0.35,-0.11,-0.20,0.63,1.07,0.22,-0.81,0.45,-0.15,-1.81
cooperation;0.67084,0.91,-1.05,0.89,0.40,-0.36,0.56,-0.45,0.60,-0.31,0.66,0.41,-0.75,0.44,-0.71,0.07,0.47,-0.33,1.45,0.27,0.88,0.19,0.14,-0.95,0.03,-1.08,0.97,-0.33,-0.40,0.27,3.51,1.17,-0.98,-0.87,-0.62,-0.52,-1.11,0.60,-0.96,0.62,-0.70,-0.74,0.96,-1.48,0.37,0.06,-0.30,1.69,-0.25,-0.16
shows;0.079654,0.78,-0.13,0.15,0.20,0.29,-0.76,-0.78,0.20,0.29,-0.23,-0.39,-0.15,0.43,0.86,-0.09,-0.29,-0.19,-0.54,-0.27,0.65,0.31,0.67,0.46,0.12,-0.83,-1.39,0.28,0.24,-0.17,2.87,0.43,0.27,-1.16,-0.29,0.12,0.18,-0.21,-0.86,-0.49,-0.19,0.21,-0.54,-0.36,0.07,-0.24,0.21,-0.11,-0.09,0.57
investigation; 1.252,-0.61,-0.32,0.70,-0.07,0.37,-0.05,0.52,0.93,-0.82,-0.58,0.03,-1.49,0.01,1.08,-0.67,-0.54,-0.26,8.4573e-03,-0.13,0.91,0.44,0.11,-0.51,-0.68,-2.52,-0.02,0.25,-0.52,0.18,2.20,-1.16,-0.69,-1.70,0.03,0.14,-0.08,-0.27,0.55,-0.17,-0.57,0.10,0.36,0.17,0.10,-0.90,0.02,1.35,0.55,-0.11
mission; 1.9144,0.40,-0.31,-0.64,0.55,-0.81,-0.76,0.18,0.94,-1.07,0.52,0.20,-0.36,0.56,-0.30,-0.13,0.08,0.16,-0.25,0.45,-0.40,0.79,-0.66,-0.49,0.31,-1.14,0.09,-0.48,-0.17,0.29,2.73,-0.07,-1.75,-0.86,-9.3403e-03,0.02,-6.449e-03,-0.18,-0.27,0.10,-0.30,-0.48,0.40,-1.24,-0.47,0.30,0.32,0.62,-0.91,0.42
associated;0.23032,1.09,-0.02,0.74,-0.17,0.22,-0.38,-0.15,0.25,-0.35,0.42,0.05,-0.38,-0.35,0.35,0.45,-0.15,-1.00,0.25,7.8635e-03,-0.03,0.16,0.90,0.36,0.04,-0.81,-0.81,-0.40,-0.23,0.50,2.62,-0.57,0.87,-1.66,-0.13,0.28,0.04,-0.12,0.23,1.24,0.29,0.94,-0.05,-0.17,0.96,-0.05,-0.48,0.25,0.12,0.10
buy;0.76552,-0.12,1.14,0.07,0.69,-0.25,-1.43,-0.64,-0.17,0.60,0.10,0.96,0.35,-0.45,0.55,1.15,-0.13,0.34,0.01,-1.11,1.35,-0.11,-0.39,-0.11,-0.92,-1.42,-0.38,-0.15,0.78,-0.90,2.56,0.70,-0.13,1.10,0.51,-0.60,-0.51,-0.03,0.45,-0.97,0.76,5.2619e-03,1.01,0.27,0.28,0.23,-0.85,0.36,-0.17,0.64
green;-0.5767,0.86,-0.49,-0.10,0.65,0.32,-1.32,-1.01,-0.20,-0.79,-0.41,0.08,0.25,-0.10,-0.64,0.17,0.68,-0.01,-0.59,-1.04,-0.55,-0.18,0.49,-0.53,-0.63,-0.91,0.15,1.37,0.45,-0.76,2.57,-0.22,-0.59,-0.17,0.27,0.30,-0.12,0.21,0.23,-0.74,0.12,-0.02,-0.42,-0.60,0.71,0.19,-0.11,-1.13,0.49,-0.02
forward;-0.25187,-0.05,0.23,-0.59,1.03,7.5563e-03,-0.84,0.07,-0.49,0.08,0.54,0.58,-1.59,0.65,-0.58,-0.12,0.84,-0.81,-0.34,-0.54,-0.74,0.35,-0.42,-0.55,0.23,-1.26,1.43,0.20,8.6962e-04,-1.00,2.98,0.82,-0.50,-0.66,0.25,0.05,-0.07,0.60,0.10,-0.31,-0.09,0.22,-0.10,-0.84,-0.31,0.06,0.79,0.57,0.14,-0.03
firm;0.24036,-0.38,0.21,0.88,0.43,0.21,-1.10,-0.17,0.14,-0.17,-0.06,0.44,-0.95,-0.45,-0.69,0.05,0.10,0.12,0.06,-0.63,1.61,0.53,-0.53,-0.72,-1.01,-1.36,-0.06,-0.36,-0.37,0.33,2.64,-0.67,0.29,0.01,-0.31,-1.15,-1.03,0.34,1.11,-0.68,0.83,-0.64,0.27,0.17,0.18,-0.17,-0.77,0.64,-0.10,0.70
governor;-0.21253,-0.75,0.09,0.09,0.68,-0.28,-0.59,0.72,-0.58,-1.11,-0.80,0.12,0.82,-0.89,0.02,0.14,-0.11,-0.25,0.15,0.45,-0.01,-0.89,-0.05,-0.46,0.34,-2.73,0.19,-0.02,-0.85,0.03,1.72,-0.30,-0.85,-0.77,0.55,-0.38,-0.42,0.39,-0.13,-0.17,-1.27,1.90,-1.19,-1.09,-1.12,-0.22,-1.03,-0.32,0.88,0.87
cross;0.34047,0.98,-0.51,-0.32,0.19,-3.0261e-04,-0.51,-4.0674e-03,1.01,-0.84,0.24,0.07,-0.65,-0.04,-0.41,-0.42,0.83,-0.75,-0.51,-0.37,-0.12,0.01,-0.38,-0.08,-0.09,-1.37,0.91,0.20,-0.34,-0.67,2.87,0.39,-0.47,-0.01,-0.38,0.31,-0.02,-0.11,-0.44,0.40,0.49,0.15,0.44,-0.44,0.22,-0.80,0.51,-0.37,-0.17,-1.06
chance;0.20291,0.18,0.28,-0.19,0.82,-0.10,-0.52,1.12,0.16,0.70,-0.11,-0.08,-0.65,0.12,0.57,0.16,1.18,-0.86,-0.58,-0.54,-0.47,0.18,0.04,-0.10,0.67,-1.60,0.02,-0.37,0.47,-0.60,2.83,1.23,-0.85,-0.18,0.19,-0.15,0.05,0.91,0.13,-1.19,-0.25,-0.08,-0.18,0.23,-0.31,0.29,0.18,0.07,0.05,0.02
serious;0.62999,0.26,-0.50,0.06,-0.35,1.13,0.59,0.67,0.42,0.17,-0.32,-0.07,-0.90,-0.20,0.90,-0.15,0.23,-0.03,-0.04,-0.24,-0.49,0.45,0.07,-0.21,0.55,-1.91,-0.44,0.13,0.68,0.80,3.21,0.33,0.33,-1.17,-0.24,0.42,0.13,-0.15,1.0865e-03,-0.24,-0.77,0.24,0.23,0.50,0.78,-0.02,-0.34,1.04,0.32,0.22
paris;0.76989,1.18,-1.12,-0.74,-0.59,-1.05,-0.46,0.27,-0.99,-0.04,0.28,-0.75,-1.05,-0.19,0.57,-0.24,-0.36,-0.70,-0.91,-0.27,1.51,1.03,-0.55,0.52,-0.71,-1.09,-0.60,0.31,-0.44,0.55,2.14,0.43,-0.55,-0.24,-0.43,-0.96,0.25,0.79,0.37,0.49,0.84,-0.25,1.56,-1.11,0.09,0.07,-0.45,-0.86,0.97,-0.35
officers;0.17061,-0.88,0.46,-0.85,0.84,-0.74,-8.5043e-04,0.60,-0.53,-1.83,-0.06,-0.35,-0.25,-0.14,1.466e-04,-1.00,-0.71,0.49,-0.55,-1.05,0.18,0.87,0.28,-0.06,-1.15,-1.95,0.20,-0.49,-0.32,-0.26,2.59,0.28,-0.48,-1.54,0.67,1.05,0.41,-0.86,-0.12,0.59,-0.34,0.40,0.99,0.33,0.29,-1.23,-0.66,0.17,-0.01,-0.25
brown;-0.88497,0.71,-0.40,-0.10,0.81,1.02,-1.26,-0.49,-0.27,-0.92,-0.49,0.78,-0.20,-0.05,0.06,0.30,0.13,-0.49,-0.54,-0.81,-0.45,0.52,1.03,-0.85,-0.65,-1.27,0.23,1.04,0.18,-0.39,2.13,-0.45,-0.16,-0.46,0.15,-0.09,-0.26,-0.05,0.63,-1.04,0.03,0.76,-0.64,-0.59,0.46,0.31,-0.34,-0.59,-0.31,0.73
la; 1.1805,1.05,-1.56,0.16,-1.48,-1.11,-0.16,0.31,-0.71,0.64,-0.37,0.09,-0.43,-0.74,-0.12,-2.48,-0.34,0.46,-0.30,-0.08,-1.27,0.31,0.04,0.24,-0.71,-0.48,-0.90,0.95,0.03,-0.38,2.72,-0.73,-0.70,0.40,-0.89,-0.74,0.29,-8.3091e-03,0.95,-0.08,0.66,-0.37,0.82,-1.50,-1.00,-0.39,-1.04,-1.47,1.21,1.30
hall;-0.80421,1.70,-0.68,0.06,0.35,-0.31,-1.23,0.08,-0.35,-0.89,-0.63,-0.04,-0.38,-0.24,0.29,0.40,0.52,0.67,-0.82,-0.67,0.92,0.35,-1.11,-0.19,-0.04,-0.86,0.01,-0.09,-0.88,-0.45,1.92,-0.22,0.22,-0.94,0.22,0.40,1.42,0.14,0.33,0.29,-0.33,-0.03,-1.16,0.37,0.05,0.54,-0.71,-1.45,-0.65,0.08
olympic;-0.92192,1.89,-0.08,1.87,-0.20,-0.28,-0.39,0.23,0.54,-0.65,0.47,-0.55,-0.97,0.36,1.64,-0.03,0.74,0.56,-1.30,-1.04,-0.08,-0.03,-0.59,-0.42,0.52,-1.46,-0.07,-0.30,-0.70,-0.22,1.72,1.30,-0.84,-0.33,-0.48,0.10,0.71,1.24,-1.06,-0.45,-0.32,-0.37,0.81,-0.02,0.39,-0.10,-0.58,-0.13,-0.03,-0.83
deputy;-0.55629,0.18,-0.10,0.76,1.04,-0.42,0.11,0.15,-0.49,-2.28,0.26,0.48,-0.53,0.53,-4.3887e-03,-0.04,-0.06,0.31,0.70,0.60,0.20,0.04,0.39,-0.40,-0.28,-2.01,0.81,-0.12,-1.48,0.98,2.06,-0.51,-0.43,-0.66,-0.13,0.37,0.32,0.44,0.36,0.69,-0.46,1.48,-0.37,-1.40,0.26,-0.41,-1.47,0.36,0.77,0.92
records;-0.7431,0.32,0.27,0.42,-0.57,-0.07,-1.17,0.22,1.08,0.46,0.37,0.60,-0.59,0.03,0.86,-0.42,-0.86,-0.51,-0.20,-0.15,0.36,0.01,0.75,-0.26,-0.52,-0.85,-1.71,-0.40,-0.09,-0.69,2.70,-1.06,0.18,-0.40,-0.11,0.20,0.83,-0.75,0.33,-0.78,0.18,-1.00,-0.16,0.24,-0.62,-0.22,-0.12,-0.33,-0.40,-0.73
heart;0.83107,0.89,-0.15,-0.62,-0.21,1.12,0.36,0.52,0.84,0.71,0.36,-0.42,-0.25,0.09,-0.09,0.60,-0.61,5.744e-03,-0.20,0.39,-0.53,0.67,0.04,-0.06,0.38,-1.82,-1.03,0.40,0.24,-0.13,2.91,0.45,0.31,-0.23,-0.27,0.12,0.92,0.24,1.30,-0.22,-0.36,0.08,-0.50,0.18,0.75,0.65,-0.12,-0.75,-0.33,0.08
award;-1.3086,1.73,-0.57,0.39,0.54,0.41,-0.61,-0.65,1.02,0.58,0.29,0.76,0.23,0.26,0.61,-1.18,0.84,0.59,-1.04,-0.16,0.69,0.12,-0.41,-1.02,0.02,-1.31,-1.71,-1.20,-1.91,-0.56,1.88,0.41,-0.36,-0.74,-0.22,0.19,0.52,0.35,0.04,-1.15,0.20,0.55,-0.86,-0.85,-1.38,-0.33,-0.46,0.11,-0.42,0.45
institute;-0.3411,0.64,-0.46,-0.06,-0.15,-0.31,-0.93,-1.38,0.74,-0.40,1.01,-0.40,0.16,-0.25,-0.59,0.32,0.07,0.72,-0.55,0.80,0.93,0.54,-0.56,-0.79,0.10,-1.56,-0.89,-0.91,-2.26,-0.06,2.25,-0.49,-0.28,-1.88,-0.77,-0.55,-0.27,0.87,1.99,0.45,9.9083e-03,-0.31,0.40,-0.37,0.35,0.51,0.20,0.69,-0.14,0.30
democrats;-0.10274,-0.79,1.15,-0.72,-0.20,1.29,-0.54,0.28,-1.32,-0.66,-1.78,-1.22,-0.06,0.26,-0.68,-0.17,0.58,-1.06,0.53,-1.17,-0.28,-0.17,0.66,-0.31,0.17,-2.06,-0.41,-0.05,-0.49,0.25,2.35,0.88,-1.04,-0.93,-0.52,-1.22,-0.65,0.46,-0.17,-1.04,-0.82,0.41,-0.67,0.53,-0.48,0.47,-1.22,0.37,0.08,0.49
labor;-1.0408,-0.33,-0.02,-0.40,-0.30,0.51,-0.57,0.07,-0.56,-0.73,0.13,-0.64,-1.9387e-03,0.19,0.55,-0.16,0.32,-0.39,1.12,-0.80,0.40,-0.55,-0.68,-0.24,-0.31,-1.18,0.36,-0.72,-0.05,1.61,3.04,0.10,-0.45,-0.40,-0.89,-0.40,-0.29,-0.20,0.60,0.12,-1.20,0.04,0.10,0.14,0.49,-0.57,-0.99,0.34,0.30,0.60
william;-0.24043,0.60,-0.48,-0.67,0.47,0.54,-1.12,-0.14,-0.62,-1.49,-0.79,1.46,-0.38,-1.37,-0.06,-0.03,0.04,-0.67,-0.93,-0.38,0.63,0.11,-0.18,-0.56,0.22,-1.74,-0.01,-1.12,-0.52,0.59,1.14,-1.45,8.4974e-03,-0.75,0.87,-0.51,-0.23,0.38,0.12,0.04,0.69,1.05,-0.18,-0.37,0.05,0.31,-0.41,-1.34,-0.40,0.99
rules;-0.95702,-0.58,-1.02,-0.10,-0.73,0.29,0.18,-0.69,0.02,-0.67,0.04,0.79,-0.60,0.24,0.74,0.58,0.12,-0.48,0.50,-1.14,0.35,-0.30,-0.31,0.15,-0.46,-1.86,-0.01,-0.19,-0.02,0.03,3.01,0.06,-1.06,-0.58,-9.1301e-03,-0.23,0.67,-0.32,-0.74,-0.17,-0.56,-0.35,0.94,1.46,-0.79,-8.3287e-03,-0.02,0.86,0.36,-0.07
safety;-0.60245,0.07,0.52,0.05,-0.56,-0.01,-0.83,-0.27,1.57,-1.02,0.44,0.68,-0.71,-0.11,-3.6947e-03,0.32,-0.03,-0.01,0.11,-1.38,-0.26,0.48,-0.73,-0.93,0.16,-1.71,0.27,-0.03,0.42,-0.10,2.61,0.42,-0.21,-1.33,0.57,0.56,0.85,-0.39,0.43,0.44,-0.61,0.03,0.86,0.34,0.37,0.03,-0.23,0.95,0.45,0.22
worth;0.40404,0.38,0.53,0.05,1.05,-0.19,-0.73,-0.96,0.10,0.64,-0.89,0.24,0.50,-1.11,1.58,-0.41,-0.29,0.74,-0.65,-0.10,1.04,0.01,-0.29,-1.08,-0.13,-1.26,-5.5735e-03,-0.15,0.59,-0.85,2.95,0.34,0.50,1.08,0.22,-0.18,-0.27,0.37,0.30,-0.49,0.11,0.01,1.13,0.38,-0.74,0.08,-0.71,0.84,-0.55,0.30
korean;-0.37091,0.45,-0.02,0.41,-0.45,-0.44,-0.14,0.29,-0.37,-0.34,0.37,4.9877e-03,0.35,0.87,-0.19,0.02,-0.38,0.92,0.05,0.87,0.52,0.22,0.20,-0.32,0.58,-2.15,0.10,-0.18,-0.60,-0.18,3.12,-0.44,0.12,1.18,0.17,-0.27,-0.13,-0.60,-1.45,-0.44,-0.74,-0.79,1.12,-0.78,1.72,-1.04,-0.25,0.95,-0.47,-0.75
arab;-0.066035,0.64,-0.41,-0.33,0.95,-0.55,-0.28,0.15,-0.32,-0.11,-0.02,-0.91,0.08,0.58,-0.46,0.88,0.91,-0.81,0.34,1.29,0.53,0.43,0.66,0.53,-0.60,-1.52,-0.35,-0.34,0.13,0.90,2.85,0.65,-0.59,0.33,-0.36,-0.25,-0.89,-0.53,-1.60,0.89,-0.14,-0.27,0.20,-0.35,0.64,0.26,-1.46,1.18,-0.73,-1.20
friends;0.56447,0.99,-0.10,-0.62,0.84,0.13,-1.43,0.49,-0.66,-0.09,-0.54,0.50,8.5205e-03,-0.04,0.74,-0.19,-0.07,0.21,0.40,-0.41,0.30,1.42,0.41,0.80,0.66,-1.41,-0.49,-0.49,0.07,-0.86,2.31,0.85,-0.21,-0.52,-0.09,0.15,-0.53,-0.22,-0.06,-0.31,-0.04,0.17,-0.33,0.36,0.84,-0.30,-0.73,-0.91,-0.48,0.22
atlanta;-1.0255,1.14,0.27,1.29,-0.22,-0.55,-1.97,-0.52,0.55,-0.48,-0.75,-0.55,-0.99,0.13,0.83,-0.05,-0.79,-0.59,-0.43,0.09,-0.42,0.52,-0.41,0.64,-0.59,-1.04,-0.06,-0.45,0.79,-0.80,1.78,0.52,0.03,-0.51,-0.19,-0.31,0.09,0.17,0.91,0.48,-0.05,0.33,0.24,0.71,0.04,1.45,-0.15,-0.15,-0.55,1.07
armed;0.43666,-1.01,0.59,-0.33,0.69,-0.18,0.25,0.03,-0.55,-1.22,9.3505e-03,-0.65,-0.55,0.20,-0.75,-0.70,-0.06,0.70,-0.46,-0.26,-0.22,0.52,0.22,-0.11,-1.11,-1.84,0.30,-0.55,0.48,0.31,2.81,-0.11,-1.36,-0.26,0.21,0.86,-0.41,-1.39,-1.29,0.63,-0.25,0.19,0.41,-0.41,1.04,-1.05,-0.74,7.9102e-03,-0.55,-0.79
whole;0.4355,-0.18,-0.70,-0.19,1.14,0.14,0.01,-0.28,0.08,-0.24,-0.17,-0.13,-0.12,-0.02,0.56,0.26,0.47,0.44,0.06,-0.11,0.06,-0.14,0.35,0.28,0.56,-1.11,-0.87,0.69,0.97,-0.31,3.56,0.06,-0.12,0.02,-0.76,0.09,-0.37,0.31,0.26,-0.36,-0.37,-0.58,-0.17,-0.14,-0.39,0.87,0.08,0.02,-3.0427e-03,0.11
authority;0.14941,-0.04,-0.14,-0.11,0.17,-0.44,0.31,-0.03,0.71,-0.54,0.17,0.77,-0.29,-0.20,-0.52,0.95,0.50,-0.23,0.57,0.26,0.61,-5.6847e-04,-0.66,-0.44,-0.76,-2.08,0.10,-0.25,-0.21,0.48,2.81,0.12,-0.70,-1.00,-0.21,3.9275e-03,0.58,-0.81,-0.11,0.66,-0.34,0.25,0.01,0.64,-1.55,-0.02,-1.24,0.55,0.29,-0.21
risk; 1.0392,0.04,0.45,-0.76,-0.21,1.04,0.57,0.11,0.92,0.30,0.50,0.16,-0.09,-0.23,0.49,0.72,0.44,-0.54,-0.15,-0.30,-0.21,-0.25,0.30,-0.05,-0.11,-1.61,-0.21,-0.20,0.71,0.86,3.09,0.80,0.63,-1.04,-0.22,-0.30,-0.08,-0.49,0.59,-0.61,-0.75,-0.17,1.01,1.00,0.86,-0.48,-0.02,0.82,0.79,0.55
science;-0.60334,1.05,-0.30,0.05,6.2269e-04,-0.15,-0.39,-1.68,0.25,0.09,0.22,0.40,-0.13,0.50,-0.31,-0.13,0.36,1.14,-0.46,0.78,1.10,0.67,0.33,-0.19,0.88,-1.51,-1.08,-0.97,-1.02,-0.08,2.64,-0.47,-0.45,-2.02,-0.40,0.26,-0.66,1.12,0.89,0.20,-0.02,-0.46,0.25,0.37,-0.12,0.72,0.90,0.83,2.2837e-04,0.44
boston;-0.15564,0.89,-0.28,-0.01,0.13,-0.10,-1.89,0.14,-0.64,-0.07,-0.70,0.12,-0.51,0.39,0.05,-0.72,-0.25,-0.16,-1.37,0.45,0.46,-0.07,-0.54,0.07,-0.86,-1.60,0.17,-0.22,0.16,-1.01,1.98,0.42,0.74,-0.85,-0.39,-0.63,7.884e-03,0.31,1.36,0.13,-0.22,-0.19,0.01,0.85,-0.18,0.79,-0.40,-0.14,-0.51,1.22
conditions;0.28314,0.11,-0.69,-0.22,-1.07,-0.29,0.25,0.43,0.33,-0.20,0.66,-0.26,0.10,-0.10,0.45,1.07,0.31,-0.79,0.27,-0.75,-0.52,0.65,0.25,-0.42,0.36,-0.43,-0.03,0.33,1.01,1.54,3.77,-0.04,-0.20,-0.92,0.24,-0.14,0.44,0.18,-9.5927e-03,0.01,-0.98,-0.22,1.30,0.51,0.38,-0.29,-0.05,0.40,0.33,0.28
coalition;0.85678,-0.75,0.95,0.06,0.31,0.85,-0.27,0.06,-0.67,-1.16,-0.42,-1.31,-0.49,0.96,-1.12,0.11,0.67,-0.41,0.45,0.14,-0.54,0.22,-0.20,-0.10,-0.60,-1.16,0.02,-0.47,-0.35,1.28,2.83,0.50,-1.50,-0.09,-0.68,-0.11,-0.20,-0.39,-0.32,-0.16,-0.36,-0.08,-0.51,-0.45,0.15,0.40,-1.64,0.45,0.15,-0.01
lee;-0.79126,1.15,0.27,0.59,-0.43,-0.15,-0.63,-0.07,-0.08,0.04,-0.83,1.08,-0.95,-0.13,-0.33,0.35,0.37,-0.84,0.21,0.71,0.07,0.66,0.57,-0.92,0.35,-2.02,0.36,-0.41,-1.22,-0.85,2.02,-0.41,0.35,0.20,0.62,-0.70,0.50,0.26,-0.33,-0.29,-0.47,0.76,-0.32,-0.60,1.25,-0.97,-0.60,-1.13,0.17,1.06
